svm_type c_svc
kernel_type rbf
gamma 0.25
nr_class 2
total_sv 32
rho 0.589359
label 1 0
nr_sv 16 16
SV
1 1:1 2:1 3:1 4:0.42857143 
1 1:1 2:1 3:1 4:0.81818182 
1 1:1 2:1 3:0.63636364 4:0.83333333 
1 1:1 2:1 3:1 4:0.71428571 
1 1:1 2:1 3:0.63636364 4:1 
1 1:1 2:1 3:0.8 4:0.84615385 
1 1:1 2:1 3:0.8 4:0.84615385 
1 1:1 2:1 3:0.8 4:0.84615385 
1 1:1 2:1 3:0.8 4:0.84615385 
1 1:1 2:1 3:0.8 4:0.84615385 
1 1:1 2:1 3:0.8 4:0.84615385 
1 1:1 2:1 3:0.8 4:0.84615385 
1 1:1 2:1 3:0.8 4:0.84615385 
1 1:1 2:1 3:0.63636364 4:1 
0.2542420434585216 1:1 2:1 3:1 4:1 
0.8697675576370905 1:1 2:1 3:1 4:1 
-1 1:0.77777778 2:1 3:0.38461538 4:0.41176471 
-1 1:0.77777778 2:1 3:0.5 4:0.41176471 
-1 1:0.77777778 2:1 3:0.8 4:0.41176471 
-1 1:1 2:1 3:0.77777778 4:0.33333333 
-1 1:1 2:1 3:0.77777778 4:0.33333333 
-1 1:1 2:1 3:1 4:0.33333333 
-0.2551652577888235 1:1 2:1 3:0.77777778 4:0.33333333 
-1 1:1 2:1 3:1 4:0.42857143 
-1 1:1 2:1 3:1 4:0.42857143 
-1 1:1 2:1 3:1 4:0.33333333 
-1 1:1 2:1 3:1 4:0.33333333 
-1 1:1 2:1 3:1 4:0.33333333 
-1 1:1 2:1 3:1 4:0.33333333 
-1 1:1 2:0.4 3:0.5 4:0.75 
-0.8688443433067886 1:0.8 2:1 3:0.45454545 4:0.4 
-1 1:0.5 2:0.2 3:0.44444444 4:0.90909091 
