svm_type one_class
kernel_type rbf
gamma 0.25
nr_class 2
total_sv 13230
rho 10999.5
SV
1 1:0.75 2:1 3:0.55555556 4:0.11764706 
1 1:0.75 2:1 3:0.55555556 4:0.1875 
1 1:0.75 2:1 3:0.55555556 4:0.11764706 
1 1:0.75 2:1 3:0.75 4:0.11764706 
1 1:0.75 2:1 3:0.55555556 4:0.13333333 
1 1:0.75 2:1 3:0.55555556 4:0.1875 
1 1:0.75 2:1 3:0.55555556 4:0.17647059 
1 1:0.75 2:1 3:0.55555556 4:0.2 
1 1:0.75 2:1 3:0.75 4:0.17647059 
1 1:0.75 2:1 3:0.55555556 4:0.17647059 
1 1:0.75 2:1 3:0.55555556 4:0.17647059 
1 1:0.75 2:1 3:0.55555556 4:0.2 
1 1:0.75 2:1 3:0.55555556 4:0.2 
1 1:0.75 2:1 3:0.55555556 4:0.17647059 
1 1:0.75 2:1 3:0.55555556 4:0.2 
1 1:0.75 2:1 3:0.55555556 4:0.17647059 
1 1:0.75 2:1 3:0.55555556 4:0.2 
1 1:0.36363636 2:0.25 3:0.6 4:0.29411765 
1 1:0.36363636 2:0.090909091 3:0.33333333 4:0.11764706 
1 1:0.36363636 2:0.090909091 3:0.33333333 4:0.17647059 
1 1:0.77777778 2:0.27272727 3:0.5 4:0.23529412 
1 1:1 2:0.3 3:0.28571429 4:0.11764706 
1 1:0.6 2:0.4 3:0.54545455 4:0.17647059 
1 1:0.6 2:0.16666667 3:0.38461538 4:0.11111111 
1 1:0.77777778 2:0.27272727 3:0.38461538 4:0.15789474 
1 1:0.7 2:0.14285714 3:0.41666667 4:0.25 
1 1:0.6 2:0.3 3:0.28571429 4:0.10526316 
1 1:1 2:0.15384615 3:0.38461538 4:0.11111111 
1 1:0.6 2:0.3 3:0.28571429 4:0.11111111 
1 1:0.5 2:0.16666667 3:0.28571429 4:0.10526316 
1 1:0.5 2:0.16666667 3:0.45454545 4:0.25 
1 1:0.6 2:0.16666667 3:0.54545455 4:0.10526316 
1 1:0.6 2:0.3 3:0.28571429 4:0.17647059 
1 1:1 2:0.16666667 3:0.38461538 4:0.11111111 
1 1:1 2:0.16666667 3:0.38461538 4:0.25 
1 1:0.77777778 2:0.083333333 3:0.8 4:0.23529412 
1 1:0.75 2:0.11111111 3:0.75 4:0.1875 
1 1:0.25 2:0.2 3:0.45454545 4:0.11111111 
1 1:0.36363636 2:0.090909091 3:0.45454545 4:0.11111111 
1 1:0.36363636 2:0.1 3:0.45454545 4:0.2 
1 1:0.36363636 2:0.2 3:0.36363636 4:0.055555556 
1 1:0.36363636 2:0.2 3:0.45454545 4:0.1875 
1 1:0.25 2:0.1 3:0.33333333 4:0.11764706 
1 1:0.36363636 2:0.090909091 3:0.33333333 4:0.10526316 
1 1:0.45454545 2:0.2 3:0.36363636 4:0.11764706 
1 1:0.36363636 2:0.1 3:0.45454545 4:0.11111111 
1 1:0.36363636 2:0.18181818 3:0.45454545 4:0.1875 
1 1:0.36363636 2:0.18181818 3:0.45454545 4:0.11764706 
1 1:0.5 2:0.1 3:0.6 4:0.1875 
1 1:0.7 2:0.090909091 3:0.6 4:0.17647059 
1 1:0.75 2:0.2 3:0.55555556 4:0.1875 
1 1:0.36363636 2:0.090909091 3:0.36363636 4:0.11111111 
1 1:0.36363636 2:0.1 3:0.77777778 4:0.1875 
1 1:0.36363636 2:0.090909091 3:0.33333333 4:0.1875 
1 1:0.36363636 2:0.090909091 3:0.45454545 4:0.11764706 
1 1:0.36363636 2:0.1 3:0.45454545 4:0.11111111 
1 1:0.36363636 2:0.090909091 3:0.33333333 4:0.17647059 
1 1:0.25 2:0.090909091 3:0.45454545 4:0.16666667 
1 1:0.36363636 2:0.090909091 3:0.45454545 4:0.16666667 
1 1:0.36363636 2:0.1 3:0.45454545 4:0.1875 
1 1:0.36363636 2:0.090909091 3:0.36363636 4:0.11111111 
1 1:0.36363636 2:0.090909091 3:0.45454545 4:0.11111111 
1 1:0.25 2:0.1 3:0.33333333 4:0.17647059 
1 1:0.36363636 2:0.090909091 3:0.33333333 4:0.1 
1 1:0.45454545 2:0.2 3:0.36363636 4:0.17647059 
1 1:0.36363636 2:0.1 3:0.45454545 4:0.10526316 
1 1:0.36363636 2:0.083333333 3:0.45454545 4:0.11111111 
1 1:0.36363636 2:0.083333333 3:0.45454545 4:0.17647059 
1 1:0.36363636 2:0.1 3:0.45454545 4:0.11111111 
1 1:0.54545455 2:0.090909091 3:0.45454545 4:0.10526316 
1 1:0.75 2:0.090909091 3:0.55555556 4:0.25 
1 1:0.36363636 2:0.090909091 3:0.36363636 4:0.05 
1 1:0.36363636 2:0.22222222 3:0.6 4:0.17647059 
1 1:0.36363636 2:0.090909091 3:0.33333333 4:0.11111111 
1 1:0.36363636 2:0.2 3:0.45454545 4:0.17647059 
1 1:0.36363636 2:0.22222222 3:0.45454545 4:0.16666667 
1 1:0.36363636 2:0.090909091 3:0.33333333 4:0.10526316 
1 1:0.77777778 2:0.3 3:0.28571429 4:0.11111111 
1 1:0.45454545 2:0.27272727 3:0.41666667 4:0.10526316 
1 1:0.45454545 2:0.16666667 3:0.5 4:0.16666667 
1 1:1 2:0.3 3:0.5 4:0.23529412 
1 1:0.6 2:0.076923077 3:0.38461538 4:0.15 
1 1:0.54545455 2:0.14285714 3:0.41666667 4:0.3125 
1 1:0.45454545 2:0.3 3:0.28571429 4:0.1 
1 1:0.77777778 2:0.15384615 3:0.38461538 4:0.10526316 
1 1:0.45454545 2:0.3 3:0.28571429 4:0.10526316 
1 1:0.38461538 2:0.16666667 3:0.28571429 4:0.1 
1 1:0.36363636 2:0.27272727 3:0.6 4:0.23529412 
1 1:0.45454545 2:0.27272727 3:0.41666667 4:0.047619048 
1 1:0.45454545 2:0.3 3:0.38461538 4:0.23529412 
1 1:0.77777778 2:0.16666667 3:0.38461538 4:0.10526316 
1 1:0.77777778 2:0.16666667 3:0.63636364 4:0.3125 
1 1:0.6 2:0.083333333 3:0.63636364 4:0.375 
1 1:0.77777778 2:0.27272727 3:0.38461538 4:0.15789474 
1 1:1 2:0.44444444 3:0.28571429 4:0.11111111 
1 1:0.6 2:0.27272727 3:0.41666667 4:0.10526316 
1 1:0.6 2:0.27272727 3:0.5 4:0.16666667 
1 1:0.77777778 2:0.27272727 3:0.38461538 4:0.15 
1 1:0.7 2:0.14285714 3:0.41666667 4:0.3125 
1 1:0.6 2:0.44444444 3:0.28571429 4:0.1 
1 1:1 2:0.15384615 3:0.38461538 4:0.10526316 
1 1:0.6 2:0.3 3:0.28571429 4:0.10526316 
1 1:0.5 2:0.16666667 3:0.28571429 4:0.1 
1 1:0.5 2:0.16666667 3:0.6 4:0.23529412 
1 1:0.6 2:0.27272727 3:0.41666667 4:0.047619048 
1 1:0.6 2:0.44444444 3:0.38461538 4:0.23529412 
1 1:1 2:0.27272727 3:0.38461538 4:0.10526316 
1 1:1 2:0.27272727 3:0.5 4:0.3125 
1 1:0.77777778 2:0.083333333 3:0.63636364 4:0.29411765 
1 1:1 2:0.55555556 3:0.38461538 4:0.15789474 
1 1:0.6 2:0.3 3:0.30769231 4:0.055555556 
1 1:0.6 2:0.3 3:0.28571429 4:0.11764706 
1 1:0.77777778 2:0.33333333 3:0.28571429 4:0.11764706 
1 1:0.77777778 2:0.083333333 3:0.28571429 4:0.10526316 
1 1:0.7 2:0.16666667 3:0.30769231 4:0.11764706 
1 1:0.6 2:0.5 3:0.38461538 4:0.11111111 
1 1:1 2:0.16666667 3:0.38461538 4:0.11764706 
1 1:1 2:0.27272727 3:0.28571429 4:0.11764706 
1 1:0.6 2:0.33333333 3:0.38461538 4:0.11764706 
1 1:0.5 2:0.18181818 3:0.38461538 4:0.11111111 
1 1:0.5 2:0.18181818 3:0.33333333 4:0.1875 
1 1:0.6 2:0.3 3:0.30769231 4:0.052631579 
1 1:0.6 2:0.5 3:0.38461538 4:0.11764706 
1 1:1 2:0.3 3:0.28571429 4:0.1875 
1 1:1 2:0.3 3:0.28571429 4:0.11764706 
1 1:0.77777778 2:0.090909091 3:0.28571429 4:0.11111111 
1 1:1 2:0.44444444 3:0.28571429 4:0.11111111 
1 1:0.6 2:0.27272727 3:0.41666667 4:0.052631579 
1 1:0.45454545 2:0.3 3:0.41666667 4:0.11111111 
1 1:0.45454545 2:0.16666667 3:0.41666667 4:0.047619048 
1 1:0.41666667 2:0.14285714 3:0.45454545 4:0.11111111 
1 1:0.6 2:0.3 3:0.30769231 4:0.05 
1 1:0.6 2:0.25 3:0.41666667 4:0.052631579 
1 1:0.6 2:0.5 3:0.41666667 4:0.11111111 
1 1:0.6 2:0.3 3:0.30769231 4:0.052631579 
1 1:0.5 2:0.16666667 3:0.30769231 4:0.05 
1 1:0.36363636 2:0.16666667 3:0.5 4:0.11111111 
1 1:0.6 2:0.16666667 3:0.6 4:0.16666667 
1 1:0.6 2:0.3 3:0.30769231 4:0.11111111 
1 1:0.6 2:0.16666667 3:0.41666667 4:0.052631579 
1 1:0.6 2:0.16666667 3:0.41666667 4:0.11111111 
1 1:0.45454545 2:0.083333333 3:0.41666667 4:0.10526316 
1 1:0.6 2:0.4 3:0.54545455 4:0.10526316 
1 1:0.45454545 2:0.18181818 3:0.38461538 4:0.11111111 
1 1:0.45454545 2:0.16666667 3:0.38461538 4:0.1 
1 1:0.41666667 2:0.14285714 3:0.41666667 4:0.17647059 
1 1:0.6 2:0.3 3:0.28571429 4:0.10526316 
1 1:0.6 2:0.36363636 3:0.38461538 4:0.17647059 
1 1:0.6 2:0.25 3:0.5 4:0.17647059 
1 1:0.6 2:0.18181818 3:0.28571429 4:0.11111111 
1 1:0.5 2:0.27272727 3:0.28571429 4:0.10526316 
1 1:0.36363636 2:0.4 3:0.6 4:0.11111111 
1 1:0.6 2:0.27272727 3:0.41666667 4:0.10526316 
1 1:0.6 2:0.3 3:0.38461538 4:0.17647059 
1 1:0.6 2:0.4 3:0.38461538 4:0.17647059 
1 1:0.6 2:0.27272727 3:0.5 4:0.17647059 
1 1:0.45454545 2:0.083333333 3:0.5 4:0.16666667 
1 1:0.6 2:0.27272727 3:0.38461538 4:0.16666667 
1 1:0.6 2:0.083333333 3:0.38461538 4:0.15789474 
1 1:0.54545455 2:0.16666667 3:0.41666667 4:0.25 
1 1:0.45454545 2:0.33333333 3:0.28571429 4:0.10526316 
1 1:0.77777778 2:0.16666667 3:0.38461538 4:0.11111111 
1 1:0.77777778 2:0.27272727 3:0.38461538 4:0.25 
1 1:0.45454545 2:0.33333333 3:0.28571429 4:0.11111111 
1 1:0.38461538 2:0.3 3:0.38461538 4:0.16666667 
1 1:0.36363636 2:0.18181818 3:0.45454545 4:0.25 
1 1:0.45454545 2:0.18181818 3:0.41666667 4:0.05 
1 1:0.45454545 2:0.33333333 3:0.28571429 4:0.17647059 
1 1:0.77777778 2:0.18181818 3:0.38461538 4:0.11111111 
1 1:0.77777778 2:0.18181818 3:0.38461538 4:0.25 
1 1:0.6 2:0.090909091 3:0.5 4:0.23529412 
1 1:0.77777778 2:0.3 3:0.38461538 4:0.16666667 
1 1:0.7 2:0.14285714 3:0.41666667 4:0.15789474 
1 1:0.45454545 2:0.083333333 3:0.38461538 4:0.21052632 
1 1:0.77777778 2:0.15384615 3:0.38461538 4:0.1 
1 1:0.77777778 2:0.25 3:0.38461538 4:0.15789474 
1 1:0.45454545 2:0.083333333 3:0.38461538 4:0.22222222 
1 1:0.38461538 2:0.16666667 3:0.28571429 4:0.15 
1 1:0.5 2:0.16666667 3:0.45454545 4:0.15789474 
1 1:0.45454545 2:0.076923077 3:0.41666667 4:0.045454545 
1 1:0.45454545 2:0.083333333 3:0.28571429 4:0.1 
1 1:0.77777778 2:0.16666667 3:0.5 4:0.15789474 
1 1:0.77777778 2:0.076923077 3:0.5 4:0.22222222 
1 1:0.77777778 2:0.083333333 3:0.38461538 4:0.15 
1 1:0.77777778 2:0.16666667 3:0.38461538 4:0.15 
1 1:0.41666667 2:0.16666667 3:0.30769231 4:0.10526316 
1 1:0.7 2:0.125 3:0.41666667 4:0.11111111 
1 1:0.7 2:0.125 3:0.54545455 4:0.33333333 
1 1:0.41666667 2:0.16666667 3:0.30769231 4:0.11111111 
1 1:0.46153846 2:0.14285714 3:0.30769231 4:0.10526316 
1 1:0.6 2:0.14285714 3:0.66666667 4:0.25 
1 1:0.41666667 2:0.14285714 3:0.45454545 4:0.05 
1 1:0.41666667 2:0.16666667 3:0.30769231 4:0.25 
1 1:0.7 2:0.14285714 3:0.41666667 4:0.11111111 
1 1:0.7 2:0.14285714 3:0.41666667 4:0.33333333 
1 1:0.7 2:0.16666667 3:0.41666667 4:0.3125 
1 1:0.7 2:0.14285714 3:0.41666667 4:0.16666667 
1 1:0.6 2:0.16666667 3:0.38461538 4:0.10526316 
1 1:0.6 2:0.27272727 3:0.28571429 4:0.10526316 
1 1:0.6 2:0.33333333 3:0.5 4:0.23529412 
1 1:0.5 2:0.18181818 3:0.38461538 4:0.15789474 
1 1:0.36363636 2:0.18181818 3:0.33333333 4:0.10526316 
1 1:0.6 2:0.3 3:0.41666667 4:0.047619048 
1 1:0.6 2:0.5 3:0.38461538 4:0.10526316 
1 1:0.6 2:0.3 3:0.38461538 4:0.16666667 
1 1:0.6 2:0.3 3:0.28571429 4:0.10526316 
1 1:0.45454545 2:0.090909091 3:0.28571429 4:0.1 
1 1:0.6 2:0.44444444 3:0.28571429 4:0.1 
1 1:1 2:0.23076923 3:0.38461538 4:0.11111111 
1 1:0.6 2:0.16666667 3:0.38461538 4:0.11111111 
1 1:0.5 2:0.36363636 3:0.38461538 4:0.10526316 
1 1:0.5 2:0.25 3:0.45454545 4:0.11111111 
1 1:0.6 2:0.15384615 3:0.41666667 4:0.10526316 
1 1:0.6 2:0.16666667 3:0.38461538 4:0.11111111 
1 1:1 2:0.25 3:0.38461538 4:0.17647059 
1 1:1 2:0.15384615 3:0.38461538 4:0.11111111 
1 1:0.77777778 2:0.076923077 3:0.38461538 4:0.10526316 
1 1:1 2:0.15384615 3:0.38461538 4:0.16666667 
1 1:0.6 2:0.27272727 3:0.28571429 4:0.11111111 
1 1:0.5 2:0.15384615 3:0.28571429 4:0.10526316 
1 1:0.5 2:0.15384615 3:0.77777778 4:0.25 
1 1:0.6 2:0.15384615 3:0.41666667 4:0.05 
1 1:0.6 2:0.27272727 3:0.38461538 4:0.25 
1 1:1 2:0.15384615 3:0.38461538 4:0.11111111 
1 1:1 2:0.15384615 3:0.5 4:0.33333333 
1 1:0.77777778 2:0.076923077 3:0.5 4:0.4 
1 1:1 2:0.36363636 3:0.38461538 4:0.16666667 
1 1:0.8 2:0.18181818 3:0.5 4:0.23529412 
1 1:0.36363636 2:0.18181818 3:0.33333333 4:0.11111111 
1 1:0.6 2:0.18181818 3:0.30769231 4:0.05 
1 1:0.77777778 2:0.33333333 3:0.5 4:0.17647059 
1 1:0.6 2:0.18181818 3:0.38461538 4:0.17647059 
1 1:0.6 2:0.18181818 3:0.28571429 4:0.11111111 
1 1:0.45454545 2:0.2 3:0.28571429 4:0.10526316 
1 1:0.6 2:0.3 3:0.28571429 4:0.10526316 
1 1:0.54545455 2:0.27272727 3:0.33333333 4:0.10526316 
1 1:0.5 2:0.16666667 3:0.30769231 4:0.047619048 
1 1:0.63636364 2:0.18181818 3:0.5 4:0.16666667 
1 1:0.5 2:0.27272727 3:0.28571429 4:0.10526316 
1 1:0.5 2:0.16666667 3:0.28571429 4:0.10526316 
1 1:0.38461538 2:0.083333333 3:0.28571429 4:0.1 
1 1:0.5 2:0.16666667 3:0.28571429 4:0.1 
1 1:0.36363636 2:0.16666667 3:0.5 4:0.05 
1 1:0.36363636 2:0.18181818 3:0.45454545 4:0.17647059 
1 1:0.5 2:0.27272727 3:0.45454545 4:0.11111111 
1 1:0.5 2:0.16666667 3:0.6 4:0.25 
1 1:0.5 2:0.083333333 3:0.6 4:0.23529412 
1 1:0.5 2:0.16666667 3:0.45454545 4:0.16666667 
1 1:0.6 2:0.3 3:0.30769231 4:0.05 
1 1:0.6 2:0.27272727 3:0.41666667 4:0.10526316 
1 1:0.6 2:0.27272727 3:0.41666667 4:0.05 
1 1:0.45454545 2:0.083333333 3:0.41666667 4:0.047619048 
1 1:0.6 2:0.27272727 3:0.54545455 4:0.15789474 
1 1:0.6 2:0.3 3:0.28571429 4:0.11111111 
1 1:0.6 2:0.3 3:0.38461538 4:0.25 
1 1:0.45454545 2:0.090909091 3:0.38461538 4:0.23529412 
1 1:0.6 2:0.44444444 3:0.28571429 4:0.10526316 
1 1:1 2:0.27272727 3:0.38461538 4:0.11111111 
1 1:0.77777778 2:0.083333333 3:0.38461538 4:0.10526316 
1 1:1 2:0.27272727 3:0.38461538 4:0.16666667 
1 1:0.77777778 2:0.18181818 3:0.5 4:0.3125 
1 1:1 2:0.27272727 3:0.38461538 4:0.16666667 
1 1:0.77777778 2:0.083333333 3:0.38461538 4:0.15789474 
1 1:0.6 2:0.2 3:0.28571429 4:0.10526316 
1 1:0.36363636 2:0.14285714 3:0.33333333 4:0.11111111 
1 1:0.6 2:0.28571429 3:0.38461538 4:0.10526316 
1 1:1 2:0.2 3:0.38461538 4:0.23529412 
1 1:1 2:0.25 3:0.38461538 4:0.25 
1 1:0.6 2:0.2 3:0.41666667 4:0.11111111 
1 1:1 2:0.25 3:0.38461538 4:0.23529412 
1 1:0.6 2:0.2 3:0.38461538 4:0.10526316 
1 1:1 2:0.25 3:0.38461538 4:0.23529412 
1 1:0.6 2:0.18181818 3:0.28571429 4:0.10526316 
1 1:0.36363636 2:0.11111111 3:0.77777778 4:0.16666667 
1 1:0.6 2:0.22222222 3:0.38461538 4:0.22222222 
1 1:0.6 2:0.16666667 3:0.28571429 4:0.1 
1 1:0.6 2:0.2 3:0.38461538 4:0.16666667 
1 1:0.6 2:0.27272727 3:0.30769231 4:0.10526316 
1 1:0.6 2:0.2 3:0.28571429 4:0.1 
1 1:0.6 2:0.27272727 3:0.38461538 4:0.15789474 
1 1:0.6 2:0.2 3:0.28571429 4:0.1 
1 1:0.6 2:0.25 3:0.5 4:0.15789474 
1 1:0.36363636 2:0.16666667 3:0.45454545 4:0.16666667 
1 1:0.36363636 2:0.11111111 3:0.33333333 4:0.10526316 
1 1:0.36363636 2:0.14285714 3:0.45454545 4:0.11111111 
1 1:0.36363636 2:0.11111111 3:0.36363636 4:0.11111111 
1 1:0.36363636 2:0.33333333 3:0.33333333 4:0.10526316 
1 1:0.36363636 2:0.11111111 3:0.45454545 4:0.10526316 
1 1:0.36363636 2:0.14285714 3:0.33333333 4:0.10526316 
1 1:0.36363636 2:0.1 3:0.6 4:0.10526316 
1 1:0.6 2:0.22222222 3:0.38461538 4:0.1 
1 1:0.6 2:0.28571429 3:0.5 4:0.16666667 
1 1:0.6 2:0.22222222 3:0.41666667 4:0.10526316 
1 1:0.6 2:0.28571429 3:0.38461538 4:0.1 
1 1:0.6 2:0.22222222 3:0.5 4:0.22222222 
1 1:0.6 2:0.28571429 3:0.63636364 4:0.1 
1 1:0.6 2:0.2 3:0.38461538 4:0.22222222 
1 1:1 2:0.2 3:0.38461538 4:0.23529412 
1 1:0.6 2:0.16666667 3:0.54545455 4:0.16666667 
1 1:1 2:0.2 3:0.5 4:0.22222222 
1 1:0.6 2:0.27272727 3:0.38461538 4:0.1 
1 1:1 2:0.2 3:0.38461538 4:0.22222222 
1 1:0.6 2:0.36363636 3:0.28571429 4:0.1 
1 1:0.6 2:0.33333333 3:0.41666667 4:0.11111111 
1 1:1 2:0.25 3:0.38461538 4:0.23529412 
1 1:0.6 2:0.33333333 3:0.63636364 4:0.16666667 
1 1:1 2:0.25 3:0.5 4:0.3125 
1 1:0.6 2:0.3 3:0.38461538 4:0.16666667 
1 1:0.6 2:0.33333333 3:0.41666667 4:0.10526316 
1 1:0.6 2:0.4 3:0.41666667 4:0.05 
1 1:0.6 2:0.33333333 3:0.41666667 4:0.10526316 
1 1:0.6 2:0.25 3:0.30769231 4:0.05 
1 1:0.6 2:0.2 3:0.63636364 4:0.1 
1 1:0.6 2:0.18181818 3:0.28571429 4:0.1 
1 1:0.6 2:0.2 3:0.5 4:0.1 
1 1:0.6 2:0.25 3:0.38461538 4:0.22222222 
1 1:0.6 2:0.18181818 3:0.28571429 4:0.1 
1 1:1 2:1 3:1 4:1 
1 1:0.6 2:1 3:0.5 4:0.16666667 
1 1:0.45454545 2:0.66666667 3:0.5 4:0.17647059 
1 1:1 2:0.15384615 3:0.38461538 4:0.17647059 
1 1:0.77777778 2:0.090909091 3:0.38461538 4:0.11111111 
1 1:0.77777778 2:0.1 3:0.5 4:0.11111111 
1 1:1 2:0.33333333 3:0.42857143 4:0.11111111 
1 1:1 2:0.375 3:0.58333333 4:0.11111111 
1 1:1 2:0.44444444 3:0.46153846 4:0.11111111 
1 1:1 2:1 3:1 4:1 
1 1:0.77777778 2:0.28571429 3:0.23076923 4:0.11764706 
1 1:0.6 2:0.28571429 3:0.33333333 4:0.1875 
1 1:0.6 2:0.33333333 3:0.33333333 4:0.1875 
1 1:0.5 2:0.25 3:0.33333333 4:0.26666667 
1 1:0.6 2:0.28571429 3:0.25 4:0.052631579 
1 1:0.77777778 2:0.33333333 3:0.33333333 4:0.1875 
1 1:0.6 2:0.28571429 3:0.25 4:0.055555556 
1 1:0.6 2:0.25 3:0.33333333 4:0.1875 
1 1:0.77777778 2:0.25 3:0.23076923 4:0.11111111 
1 1:0.77777778 2:0.33333333 3:0.23076923 4:0.1875 
1 1:0.77777778 2:0.25 3:0.23076923 4:0.11764706 
1 1:0.6 2:0.28571429 3:0.33333333 4:0.1875 
1 1:0.6 2:0.25 3:0.45454545 4:0.1875 
1 1:0.5 2:0.25 3:0.33333333 4:0.2 
1 1:0.77777778 2:0.25 3:0.23076923 4:0.11764706 
1 1:0.6 2:0.33333333 3:0.36363636 4:0.11764706 
1 1:0.77777778 2:0.22222222 3:0.33333333 4:0.17647059 
1 1:0.77777778 2:0.25 3:0.33333333 4:0.1875 
1 1:0.6 2:0.11111111 3:0.23076923 4:0.1875 
1 1:0.77777778 2:0.25 3:0.45454545 4:0.1875 
1 1:0.77777778 2:0.25 3:0.23076923 4:0.11764706 
1 1:0.77777778 2:0.33333333 3:0.33333333 4:0.1875 
1 1:0.6 2:0.33333333 3:0.45454545 4:0.1875 
1 1:0.77777778 2:0.25 3:0.23076923 4:0.11764706 
1 1:0.6 2:0.28571429 3:0.33333333 4:0.11764706 
1 1:0.77777778 2:0.33333333 3:0.23076923 4:0.11764706 
1 1:0.77777778 2:0.28571429 3:0.23076923 4:0.11764706 
1 1:0.77777778 2:0.28571429 3:0.23076923 4:0.11764706 
1 1:0.77777778 2:0.33333333 3:0.33333333 4:0.1875 
1 1:0.6 2:0.25 3:0.25 4:0.055555556 
1 1:0.6 2:0.25 3:0.23076923 4:0.11111111 
1 1:0.6 2:0.28571429 3:0.33333333 4:0.17647059 
1 1:0.5 2:0.22222222 3:0.45454545 4:0.11111111 
1 1:0.6 2:0.25 3:0.36363636 4:0.10526316 
1 1:1 2:0.28571429 3:0.33333333 4:0.25 
1 1:0.6 2:0.25 3:0.5 4:0.17647059 
1 1:0.6 2:0.22222222 3:0.23076923 4:0.11111111 
1 1:1 2:0.22222222 3:0.33333333 4:0.23529412 
1 1:1 2:0.28571429 3:0.45454545 4:0.25 
1 1:1 2:0.22222222 3:0.45454545 4:0.25 
1 1:0.6 2:0.25 3:0.33333333 4:0.11111111 
1 1:0.6 2:0.375 3:0.23076923 4:0.17647059 
1 1:0.5 2:0.22222222 3:0.23076923 4:0.11764706 
1 1:1 2:0.22222222 3:0.45454545 4:0.33333333 
1 1:0.6 2:0.28571429 3:0.36363636 4:0.052631579 
1 1:1 2:0.2 3:0.33333333 4:0.23529412 
1 1:1 2:0.22222222 3:0.33333333 4:0.25 
1 1:0.77777778 2:0.1 3:0.33333333 4:0.17647059 
1 1:1 2:0.28571429 3:0.33333333 4:0.11111111 
1 1:1 2:0.22222222 3:0.33333333 4:0.11111111 
1 1:1 2:0.22222222 3:0.33333333 4:0.25 
1 1:1 2:0.28571429 3:0.33333333 4:0.25 
1 1:0.6 2:0.28571429 3:0.23076923 4:0.11111111 
1 1:1 2:0.22222222 3:0.33333333 4:0.25 
1 1:0.6 2:0.25 3:0.23076923 4:0.11111111 
1 1:1 2:0.28571429 3:0.45454545 4:0.25 
1 1:1 2:1 3:1 4:1 
1 1:1 2:0.25 3:0.45454545 4:0.25 
1 1:1 2:0.28571429 3:0.45454545 4:0.33333333 
1 1:0.6 2:0.22222222 3:0.36363636 4:0.11111111 
1 1:0.6 2:0.28571429 3:0.23076923 4:0.11111111 
1 1:0.5 2:0.22222222 3:0.23076923 4:0.17647059 
1 1:0.6 2:0.25 3:0.36363636 4:0.10526316 
1 1:0.6 2:0.28571429 3:0.23076923 4:0.11111111 
1 1:0.6 2:0.25 3:0.25 4:0.052631579 
1 1:1 2:0.22222222 3:0.45454545 4:0.33333333 
1 1:0.6 2:0.375 3:0.33333333 4:0.16666667 
1 1:0.6 2:0.28571429 3:0.23076923 4:0.17647059 
1 1:0.6 2:0.22222222 3:0.23076923 4:0.11111111 
1 1:0.6 2:0.25 3:0.23076923 4:0.11111111 
1 1:0.6 2:0.375 3:0.33333333 4:0.11111111 
1 1:0.6 2:0.375 3:0.23076923 4:0.11111111 
1 1:0.6 2:0.28571429 3:0.25 4:0.052631579 
1 1:0.6 2:0.33333333 3:0.23076923 4:0.10526316 
1 1:0.6 2:0.22222222 3:0.23076923 4:0.11111111 
1 1:0.45454545 2:0.22222222 3:0.33333333 4:0.25 
1 1:0.6 2:0.28571429 3:0.23076923 4:0.17647059 
1 1:0.6 2:0.22222222 3:0.33333333 4:0.11111111 
1 1:0.6 2:0.22222222 3:0.23076923 4:0.11111111 
1 1:0.6 2:0.28571429 3:0.23076923 4:0.11111111 
1 1:0.6 2:0.28571429 3:0.33333333 4:0.11111111 
1 1:0.6 2:0.22222222 3:0.23076923 4:0.11111111 
1 1:0.6 2:0.42857143 3:0.45454545 4:0.17647059 
1 1:0.6 2:0.28571429 3:0.23076923 4:0.11111111 
1 1:0.6 2:0.25 3:0.23076923 4:0.11111111 
1 1:0.6 2:0.25 3:0.33333333 4:0.17647059 
1 1:0.6 2:0.28571429 3:0.23076923 4:0.11111111 
1 1:0.6 2:0.22222222 3:0.36363636 4:0.11111111 
1 1:0.5 2:0.25 3:0.45454545 4:0.17647059 
1 1:0.6 2:0.28571429 3:0.66666667 4:0.10526316 
1 1:0.6 2:0.33333333 3:0.45454545 4:0.25 
1 1:0.6 2:0.28571429 3:0.36363636 4:0.11111111 
1 1:0.6 2:0.25 3:0.23076923 4:0.11111111 
1 1:0.6 2:0.25 3:0.33333333 4:0.16666667 
1 1:0.6 2:0.33333333 3:0.33333333 4:0.11111111 
1 1:0.6 2:0.25 3:0.6 4:0.17647059 
1 1:0.6 2:0.28571429 3:0.45454545 4:0.17647059 
1 1:0.6 2:0.25 3:0.6 4:0.25 
1 1:0.5 2:0.25 3:0.23076923 4:0.11764706 
1 1:0.6 2:0.25 3:0.33333333 4:0.17647059 
1 1:0.6 2:0.33333333 3:0.5 4:0.11111111 
1 1:0.6 2:0.22222222 3:0.45454545 4:0.23529412 
1 1:0.6 2:0.25 3:0.45454545 4:0.25 
1 1:0.45454545 2:0.11111111 3:0.33333333 4:0.11111111 
1 1:0.6 2:0.33333333 3:0.45454545 4:0.17647059 
1 1:0.6 2:0.25 3:0.45454545 4:0.17647059 
1 1:0.6 2:0.25 3:0.33333333 4:0.17647059 
1 1:0.6 2:0.33333333 3:0.45454545 4:0.25 
1 1:0.6 2:0.33333333 3:0.33333333 4:0.17647059 
1 1:0.6 2:0.25 3:0.33333333 4:0.17647059 
1 1:0.6 2:0.28571429 3:0.23076923 4:0.11111111 
1 1:0.6 2:0.33333333 3:0.6 4:0.11111111 
1 1:0.6 2:0.28571429 3:0.33333333 4:0.17647059 
1 1:0.6 2:0.28571429 3:0.6 4:0.17647059 
1 1:0.6 2:0.25 3:0.36363636 4:0.11111111 
1 1:0.5 2:0.375 3:0.36363636 4:0.05 
1 1:0.5 2:0.25 3:0.45454545 4:0.17647059 
1 1:0.5 2:0.22222222 3:0.36363636 4:0.052631579 
1 1:0.5 2:0.2 3:0.23076923 4:0.17647059 
1 1:0.5 2:0.2 3:0.33333333 4:0.10526316 
1 1:0.5 2:0.25 3:0.45454545 4:0.17647059 
1 1:0.5 2:0.33333333 3:0.45454545 4:0.11111111 
1 1:0.5 2:0.2 3:0.33333333 4:0.17647059 
1 1:0.66666667 2:0.5 3:0.23076923 4:0.1875 
1 1:0.5 2:0.2 3:0.33333333 4:0.11111111 
1 1:0.5 2:0.25 3:0.5 4:0.11111111 
1 1:0.5 2:0.18181818 3:0.45454545 4:0.16666667 
1 1:0.5 2:0.5 3:0.45454545 4:0.17647059 
1 1:0.38461538 2:0.090909091 3:0.33333333 4:0.17647059 
1 1:0.5 2:0.25 3:0.45454545 4:0.25 
1 1:0.5 2:0.33333333 3:0.45454545 4:0.17647059 
1 1:0.5 2:0.2 3:0.33333333 4:0.11111111 
1 1:0.5 2:0.25 3:0.45454545 4:0.17647059 
1 1:0.5 2:0.25 3:0.33333333 4:0.17647059 
1 1:0.5 2:0.2 3:0.33333333 4:0.11111111 
1 1:0.5 2:0.22222222 3:0.23076923 4:0.11111111 
1 1:0.5 2:0.25 3:0.33333333 4:0.11111111 
1 1:0.5 2:0.22222222 3:0.45454545 4:0.11111111 
1 1:0.5 2:0.375 3:0.45454545 4:0.11111111 
1 1:0.5 2:0.25 3:0.6 4:0.17647059 
1 1:0.8 2:0.33333333 3:0.36363636 4:0.052631579 
1 1:0.6 2:0.28571429 3:0.36363636 4:0.10526316 
1 1:0.6 2:0.25 3:0.4 4:0.16666667 
1 1:0.6 2:0.22222222 3:0.25 4:0.05 
1 1:0.6 2:0.22222222 3:0.5 4:0.15789474 
1 1:0.6 2:0.28571429 3:0.36363636 4:0.05 
1 1:0.6 2:0.375 3:0.66666667 4:0.10526316 
1 1:0.6 2:0.25 3:0.36363636 4:0.05 
1 1:0.6 2:0.22222222 3:0.5 4:0.10526316 
1 1:0.5 2:0.375 3:0.25 4:0.052631579 
1 1:0.6 2:0.22222222 3:0.36363636 4:0.10526316 
1 1:0.6 2:0.28571429 3:0.4 4:0.10526316 
1 1:0.6 2:0.2 3:0.36363636 4:0.1 
1 1:0.6 2:0.375 3:0.36363636 4:0.10526316 
1 1:0.45454545 2:0.1 3:0.5 4:0.10526316 
1 1:0.6 2:0.28571429 3:0.36363636 4:0.05 
1 1:0.6 2:0.22222222 3:0.36363636 4:0.05 
1 1:0.6 2:0.22222222 3:0.36363636 4:0.10526316 
1 1:0.6 2:0.28571429 3:0.36363636 4:0.10526316 
1 1:0.6 2:0.28571429 3:0.25 4:0.05 
1 1:0.6 2:0.22222222 3:0.36363636 4:0.10526316 
1 1:0.6 2:0.25 3:0.36363636 4:0.10526316 
1 1:0.6 2:0.5 3:0.66666667 4:0.05 
1 1:0.6 2:0.25 3:0.36363636 4:0.10526316 
1 1:0.6 2:0.25 3:0.875 4:0.16666667 
1 1:0.6 2:0.28571429 3:0.66666667 4:0.10526316 
1 1:0.6 2:0.28571429 3:0.36363636 4:0.11111111 
1 1:0.6 2:0.25 3:0.23076923 4:0.11111111 
1 1:1 2:0.25 3:0.45454545 4:0.23529412 
1 1:1 2:0.33333333 3:0.33333333 4:0.17647059 
1 1:1 2:0.25 3:0.33333333 4:0.25 
1 1:0.6 2:0.28571429 3:0.45454545 4:0.17647059 
1 1:0.6 2:0.25 3:0.33333333 4:0.25 
1 1:0.5 2:0.25 3:0.23076923 4:0.11764706 
1 1:1 2:0.25 3:0.45454545 4:0.25 
1 1:0.6 2:0.33333333 3:0.5 4:0.11111111 
1 1:0.77777778 2:0.11111111 3:0.33333333 4:0.17647059 
1 1:1 2:0.33333333 3:0.45454545 4:0.17647059 
1 1:1 2:0.25 3:0.45454545 4:0.17647059 
1 1:1 2:0.25 3:0.33333333 4:0.25 
1 1:1 2:1 3:1 4:1 
1 1:0.6 2:0.33333333 3:0.33333333 4:0.17647059 
1 1:1 2:0.25 3:0.33333333 4:0.25 
1 1:0.6 2:0.28571429 3:0.33333333 4:0.11111111 
1 1:1 2:0.33333333 3:0.33333333 4:0.17647059 
1 1:1 2:0.28571429 3:0.33333333 4:0.25 
1 1:1 2:0.28571429 3:0.33333333 4:0.25 
1 1:0.6 2:0.25 3:0.36363636 4:0.11111111 
1 1:0.6 2:0.375 3:0.25 4:0.052631579 
1 1:0.6 2:0.22222222 3:0.36363636 4:0.10526316 
1 1:0.6 2:0.28571429 3:0.36363636 4:0.052631579 
1 1:0.6 2:0.375 3:0.36363636 4:0.11111111 
1 1:0.6 2:0.42857143 3:0.36363636 4:0.052631579 
1 1:0.6 2:0.22222222 3:0.25 4:0.11111111 
1 1:0.5 2:0.22222222 3:0.25 4:0.055555556 
1 1:0.6 2:0.22222222 3:0.5 4:0.17647059 
1 1:0.6 2:0.28571429 3:0.4 4:0.11111111 
1 1:0.6 2:0.2 3:0.36363636 4:0.10526316 
1 1:0.6 2:0.22222222 3:0.36363636 4:0.11111111 
1 1:0.45454545 2:0.1 3:0.36363636 4:0.052631579 
1 1:0.6 2:0.28571429 3:0.36363636 4:0.052631579 
1 1:0.6 2:0.22222222 3:0.36363636 4:0.052631579 
1 1:0.6 2:0.375 3:0.36363636 4:0.11111111 
1 1:0.6 2:0.28571429 3:0.36363636 4:0.11111111 
1 1:0.6 2:0.28571429 3:0.25 4:0.052631579 
1 1:0.6 2:0.375 3:0.36363636 4:0.11111111 
1 1:0.6 2:0.25 3:0.25 4:0.052631579 
1 1:0.6 2:0.28571429 3:0.5 4:0.11111111 
1 1:0.6 2:0.25 3:0.5 4:0.17647059 
1 1:0.6 2:0.25 3:0.36363636 4:0.11111111 
1 1:0.6 2:0.28571429 3:0.36363636 4:0.11111111 
1 1:0.6 2:0.22222222 3:0.4 4:0.17647059 
1 1:0.6 2:0.33333333 3:0.23076923 4:0.10526316 
1 1:0.6 2:0.25 3:0.33333333 4:0.17647059 
1 1:0.6 2:0.33333333 3:0.23076923 4:0.11111111 
1 1:0.6 2:0.22222222 3:0.23076923 4:0.11111111 
1 1:0.6 2:0.2 3:0.33333333 4:0.11111111 
1 1:0.8 2:0.2 3:0.6 4:0.26666667 
1 1:0.6 2:0.2 3:0.23076923 4:0.11111111 
1 1:0.6 2:0.25 3:0.25 4:0.052631579 
1 1:0.6 2:0.18181818 3:0.23076923 4:0.10526316 
1 1:0.6 2:0.2 3:0.23076923 4:0.11111111 
1 1:0.45454545 2:0.090909091 3:0.23076923 4:0.17647059 
1 1:0.6 2:0.25 3:0.23076923 4:0.17647059 
1 1:0.6 2:0.2 3:0.33333333 4:0.11111111 
1 1:0.6 2:0.33333333 3:0.33333333 4:0.11111111 
1 1:0.6 2:0.25 3:0.23076923 4:0.11111111 
1 1:0.6 2:0.25 3:0.33333333 4:0.11111111 
1 1:0.6 2:0.33333333 3:0.33333333 4:0.11111111 
1 1:0.6 2:0.22222222 3:0.33333333 4:0.11111111 
1 1:0.6 2:0.25 3:0.23076923 4:0.11111111 
1 1:0.6 2:0.22222222 3:0.23076923 4:0.11111111 
1 1:0.6 2:0.22222222 3:0.23076923 4:0.11111111 
1 1:0.6 2:0.25 3:0.23076923 4:0.11111111 
1 1:0.6 2:0.2 3:0.25 4:0.052631579 
1 1:1 2:0.25 3:0.33333333 4:0.16666667 
1 1:1 2:0.2 3:0.33333333 4:0.23529412 
1 1:0.6 2:0.22222222 3:0.33333333 4:0.10526316 
1 1:0.6 2:0.33333333 3:0.23076923 4:0.16666667 
1 1:0.5 2:0.33333333 3:0.23076923 4:0.11111111 
1 1:1 2:0.33333333 3:0.45454545 4:0.23529412 
1 1:0.6 2:0.25 3:0.36363636 4:0.05 
1 1:1 2:0.3 3:0.6 4:0.22222222 
1 1:1 2:0.2 3:0.45454545 4:0.3125 
1 1:0.77777778 2:0.2 3:0.45454545 4:0.23529412 
1 1:1 2:0.25 3:0.33333333 4:0.10526316 
1 1:1 2:0.2 3:0.33333333 4:0.10526316 
1 1:1 2:0.2 3:0.45454545 4:0.23529412 
1 1:1 2:0.25 3:0.45454545 4:0.23529412 
1 1:0.6 2:0.25 3:0.23076923 4:0.10526316 
1 1:1 2:0.2 3:0.45454545 4:0.23529412 
1 1:0.6 2:0.22222222 3:0.33333333 4:0.16666667 
1 1:1 2:0.25 3:0.33333333 4:0.16666667 
1 1:1 2:0.22222222 3:0.33333333 4:0.23529412 
1 1:1 2:0.22222222 3:0.45454545 4:0.3125 
1 1:1 2:0.25 3:0.33333333 4:0.23529412 
1 1:0.6 2:0.2 3:0.5 4:0.16666667 
1 1:1 2:0.25 3:0.45454545 4:0.17647059 
1 1:0.6 2:0.28571429 3:0.33333333 4:0.11111111 
1 1:0.6 2:0.25 3:0.23076923 4:0.11111111 
1 1:0.5 2:0.25 3:0.33333333 4:0.26666667 
1 1:1 2:0.25 3:0.33333333 4:0.17647059 
1 1:0.6 2:0.33333333 3:0.36363636 4:0.052631579 
1 1:1 2:0.22222222 3:0.33333333 4:0.16666667 
1 1:1 2:0.25 3:0.33333333 4:0.17647059 
1 1:0.77777778 2:0.11111111 3:0.33333333 4:0.33333333 
1 1:1 2:0.33333333 3:0.33333333 4:0.17647059 
1 1:1 2:0.25 3:0.33333333 4:0.11111111 
1 1:1 2:0.25 3:0.45454545 4:0.25 
1 1:1 2:0.33333333 3:0.33333333 4:0.17647059 
1 1:0.6 2:0.33333333 3:0.23076923 4:0.11111111 
1 1:1 2:0.25 3:0.45454545 4:0.25 
1 1:0.6 2:0.28571429 3:0.23076923 4:0.11111111 
1 1:1 2:0.33333333 3:0.33333333 4:0.17647059 
1 1:1 2:0.28571429 3:0.45454545 4:0.25 
1 1:1 2:0.28571429 3:0.45454545 4:0.17647059 
1 1:1 2:0.33333333 3:0.45454545 4:0.17647059 
1 1:0.6 2:0.25 3:0.36363636 4:0.052631579 
1 1:0.6 2:0.22222222 3:0.33333333 4:0.11111111 
1 1:0.6 2:0.2 3:0.45454545 4:0.17647059 
1 1:0.5 2:0.33333333 3:0.23076923 4:0.11764706 
1 1:1 2:0.2 3:0.33333333 4:0.25 
1 1:0.6 2:0.25 3:0.36363636 4:0.052631579 
1 1:1 2:0.18181818 3:0.33333333 4:0.23529412 
1 1:1 2:0.33333333 3:0.33333333 4:0.25 
1 1:0.77777778 2:0.090909091 3:0.33333333 4:0.17647059 
1 1:1 2:0.25 3:0.33333333 4:0.11111111 
1 1:1 2:0.2 3:0.33333333 4:0.11111111 
1 1:1 2:0.33333333 3:0.33333333 4:0.25 
1 1:1 2:0.25 3:0.33333333 4:0.25 
1 1:0.6 2:0.25 3:0.23076923 4:0.11111111 
1 1:1 2:0.33333333 3:0.33333333 4:0.25 
1 1:0.6 2:0.22222222 3:0.23076923 4:0.11111111 
1 1:1 2:0.25 3:0.6 4:0.17647059 
1 1:1 2:0.22222222 3:0.45454545 4:0.25 
1 1:1 2:0.25 3:0.77777778 4:0.25 
1 1:0.6 2:0.33333333 3:0.36363636 4:0.11111111 
1 1:0.6 2:0.22222222 3:0.33333333 4:0.17647059 
1 1:0.5 2:0.22222222 3:0.23076923 4:0.11764706 
1 1:0.6 2:0.22222222 3:0.33333333 4:0.11111111 
1 1:0.6 2:0.28571429 3:0.5 4:0.17647059 
1 1:0.6 2:0.2 3:0.45454545 4:0.16666667 
1 1:0.6 2:0.375 3:0.45454545 4:0.17647059 
1 1:0.45454545 2:0.1 3:0.45454545 4:0.11111111 
1 1:0.6 2:0.28571429 3:0.45454545 4:0.17647059 
1 1:0.6 2:0.375 3:0.45454545 4:0.25 
1 1:0.6 2:0.22222222 3:0.33333333 4:0.11111111 
1 1:0.6 2:0.28571429 3:0.45454545 4:0.17647059 
1 1:0.6 2:0.28571429 3:0.33333333 4:0.17647059 
1 1:0.6 2:0.22222222 3:0.33333333 4:0.11111111 
1 1:0.6 2:0.25 3:0.23076923 4:0.17647059 
1 1:0.6 2:0.28571429 3:0.33333333 4:0.17647059 
1 1:0.6 2:0.25 3:0.33333333 4:0.11111111 
1 1:0.6 2:0.25 3:0.33333333 4:0.11111111 
1 1:0.6 2:0.28571429 3:0.45454545 4:0.17647059 
1 1:0.77777778 2:0.22222222 3:0.36363636 4:0.052631579 
1 1:0.5 2:0.33333333 3:0.33333333 4:0.11764706 
1 1:0.6 2:0.33333333 3:0.23076923 4:0.17647059 
1 1:0.6 2:0.25 3:0.36363636 4:0.11111111 
1 1:0.6 2:0.3 3:0.33333333 4:0.23529412 
1 1:0.6 2:0.2 3:0.33333333 4:0.25 
1 1:0.45454545 2:0.2 3:0.23076923 4:0.11111111 
1 1:0.6 2:0.25 3:0.33333333 4:0.17647059 
1 1:0.6 2:0.2 3:0.45454545 4:0.17647059 
1 1:0.6 2:0.2 3:0.23076923 4:0.17647059 
1 1:0.6 2:0.25 3:0.33333333 4:0.25 
1 1:0.6 2:0.25 3:0.45454545 4:0.17647059 
1 1:0.6 2:0.2 3:0.23076923 4:0.17647059 
1 1:1 2:0.22222222 3:0.45454545 4:0.17647059 
1 1:0.6 2:0.25 3:0.45454545 4:0.11111111 
1 1:0.6 2:0.375 3:0.23076923 4:0.17647059 
1 1:0.6 2:0.22222222 3:0.45454545 4:0.17647059 
1 1:0.6 2:0.25 3:0.6 4:0.25 
1 1:0.6 2:0.2 3:0.25 4:0.11111111 
1 1:0.5 2:0.33333333 3:0.23076923 4:0.11764706 
1 1:0.5 2:0.25 3:0.25 4:0.055555556 
1 1:0.5 2:0.3 3:0.23076923 4:0.11111111 
1 1:0.5 2:0.33333333 3:0.23076923 4:0.11764706 
1 1:0.38461538 2:0.2 3:0.23076923 4:0.1875 
1 1:0.5 2:0.25 3:0.23076923 4:0.1875 
1 1:0.5 2:0.2 3:0.33333333 4:0.11764706 
1 1:0.5 2:0.2 3:0.33333333 4:0.1875 
1 1:0.5 2:0.25 3:0.23076923 4:0.11764706 
1 1:0.5 2:0.25 3:0.33333333 4:0.11764706 
1 1:0.5 2:0.2 3:0.33333333 4:0.1875 
1 1:0.5 2:0.22222222 3:0.33333333 4:0.11764706 
1 1:0.5 2:0.25 3:0.23076923 4:0.11764706 
1 1:0.5 2:0.22222222 3:0.23076923 4:0.11764706 
1 1:0.5 2:0.375 3:0.23076923 4:0.11764706 
1 1:0.5 2:0.25 3:0.23076923 4:0.11764706 
1 1:0.5 2:0.33333333 3:0.25 4:0.055555556 
1 1:0.6 2:0.25 3:0.36363636 4:0.052631579 
1 1:1 2:0.2 3:0.45454545 4:0.25 
1 1:0.77777778 2:0.2 3:0.33333333 4:0.17647059 
1 1:1 2:0.25 3:0.33333333 4:0.11111111 
1 1:1 2:0.2 3:0.33333333 4:0.11111111 
1 1:1 2:0.2 3:0.33333333 4:0.25 
1 1:1 2:0.25 3:0.45454545 4:0.25 
1 1:0.6 2:0.25 3:0.23076923 4:0.11111111 
1 1:1 2:0.2 3:0.33333333 4:0.25 
1 1:0.6 2:0.22222222 3:0.23076923 4:0.11111111 
1 1:1 2:0.25 3:0.45454545 4:0.25 
1 1:1 2:0.22222222 3:0.45454545 4:0.33333333 
1 1:1 2:0.22222222 3:0.33333333 4:0.25 
1 1:1 2:0.25 3:0.33333333 4:0.25 
1 1:0.6 2:0.2 3:0.36363636 4:0.11111111 
1 1:0.6 2:0.22222222 3:0.5 4:0.10526316 
1 1:0.6 2:0.25 3:0.5 4:0.11111111 
1 1:0.45454545 2:0.11111111 3:0.36363636 4:0.052631579 
1 1:0.6 2:0.33333333 3:0.5 4:0.11111111 
1 1:0.6 2:0.25 3:0.5 4:0.17647059 
1 1:0.6 2:0.25 3:0.36363636 4:0.052631579 
1 1:0.6 2:0.33333333 3:0.5 4:0.11111111 
1 1:0.6 2:0.33333333 3:0.36363636 4:0.11111111 
1 1:0.6 2:0.25 3:0.36363636 4:0.052631579 
1 1:0.6 2:0.28571429 3:0.25 4:0.11111111 
1 1:0.6 2:0.33333333 3:0.36363636 4:0.11111111 
1 1:0.6 2:0.28571429 3:0.36363636 4:0.052631579 
1 1:0.6 2:0.28571429 3:0.36363636 4:0.052631579 
1 1:0.6 2:0.33333333 3:0.5 4:0.11111111 
1 1:0.6 2:0.25 3:0.4 4:0.11111111 
1 1:1 2:0.18181818 3:0.6 4:0.3125 
1 1:0.77777778 2:0.18181818 3:0.33333333 4:0.16666667 
1 1:1 2:0.22222222 3:0.45454545 4:0.16666667 
1 1:1 2:0.18181818 3:0.45454545 4:0.16666667 
1 1:1 2:0.3 3:0.45454545 4:0.23529412 
1 1:0.6 2:0.22222222 3:0.33333333 4:0.16666667 
1 1:1 2:0.3 3:0.45454545 4:0.23529412 
1 1:0.6 2:0.2 3:0.23076923 4:0.10526316 
1 1:1 2:0.22222222 3:0.33333333 4:0.16666667 
1 1:1 2:0.2 3:0.33333333 4:0.23529412 
1 1:1 2:0.2 3:0.33333333 4:0.23529412 
1 1:1 2:0.22222222 3:0.45454545 4:0.3125 
1 1:0.6 2:0.3 3:0.36363636 4:0.10526316 
1 1:0.77777778 2:0.090909091 3:0.33333333 4:0.17647059 
1 1:1 2:0.25 3:0.45454545 4:0.17647059 
1 1:1 2:0.33333333 3:0.45454545 4:0.17647059 
1 1:1 2:0.2 3:0.33333333 4:0.25 
1 1:0.6 2:0.25 3:0.33333333 4:0.17647059 
1 1:1 2:0.2 3:0.33333333 4:0.25 
1 1:0.6 2:0.22222222 3:0.23076923 4:0.11111111 
1 1:1 2:0.25 3:0.33333333 4:0.17647059 
1 1:1 2:0.22222222 3:0.33333333 4:0.25 
1 1:1 2:0.22222222 3:0.33333333 4:0.25 
1 1:1 2:0.25 3:0.45454545 4:0.33333333 
1 1:0.6 2:0.33333333 3:0.36363636 4:0.11111111 
1 1:0.77777778 2:0.11111111 3:0.33333333 4:0.17647059 
1 1:0.77777778 2:0.090909091 3:0.33333333 4:0.11111111 
1 1:0.77777778 2:0.090909091 3:0.33333333 4:0.17647059 
1 1:0.77777778 2:0.11111111 3:0.33333333 4:0.17647059 
1 1:0.45454545 2:0.11111111 3:0.23076923 4:0.11111111 
1 1:0.77777778 2:0.090909091 3:0.33333333 4:0.17647059 
1 1:0.45454545 2:0.1 3:0.33333333 4:0.17647059 
1 1:0.77777778 2:0.11111111 3:0.33333333 4:0.17647059 
1 1:0.77777778 2:0.1 3:0.33333333 4:0.17647059 
1 1:0.77777778 2:0.1 3:0.45454545 4:0.25 
1 1:0.77777778 2:0.11111111 3:0.33333333 4:0.17647059 
1 1:0.45454545 2:0.2 3:0.5 4:0.11111111 
1 1:1 2:0.25 3:0.45454545 4:0.17647059 
1 1:1 2:0.25 3:0.33333333 4:0.11111111 
1 1:1 2:0.33333333 3:0.45454545 4:0.17647059 
1 1:0.6 2:0.33333333 3:0.33333333 4:0.17647059 
1 1:1 2:0.25 3:0.33333333 4:0.11111111 
1 1:0.6 2:0.28571429 3:0.23076923 4:0.11111111 
1 1:1 2:0.33333333 3:0.33333333 4:0.11111111 
1 1:1 2:0.28571429 3:0.33333333 4:0.11111111 
1 1:1 2:0.28571429 3:0.33333333 4:0.11111111 
1 1:1 2:0.33333333 3:0.45454545 4:0.17647059 
1 1:0.6 2:0.25 3:0.36363636 4:0.052631579 
1 1:1 2:0.33333333 3:0.33333333 4:0.11111111 
1 1:1 2:0.25 3:0.45454545 4:0.17647059 
1 1:0.6 2:0.42857143 3:0.45454545 4:0.17647059 
1 1:1 2:0.33333333 3:0.33333333 4:0.11111111 
1 1:0.6 2:0.22222222 3:0.33333333 4:0.17647059 
1 1:1 2:0.25 3:0.33333333 4:0.17647059 
1 1:1 2:0.22222222 3:0.33333333 4:0.11111111 
1 1:1 2:0.22222222 3:0.33333333 4:0.11111111 
1 1:1 2:0.25 3:0.45454545 4:0.17647059 
1 1:0.6 2:0.2 3:0.36363636 4:0.052631579 
1 1:1 2:0.25 3:0.33333333 4:0.25 
1 1:0.6 2:0.42857143 3:0.23076923 4:0.11111111 
1 1:0.6 2:0.22222222 3:0.23076923 4:0.11111111 
1 1:1 2:0.25 3:0.45454545 4:0.17647059 
1 1:1 2:0.22222222 3:0.33333333 4:0.25 
1 1:1 2:0.22222222 3:0.33333333 4:0.25 
1 1:1 2:0.25 3:0.33333333 4:0.25 
1 1:0.6 2:0.33333333 3:0.36363636 4:0.11111111 
1 1:0.6 2:0.33333333 3:0.33333333 4:0.17647059 
1 1:1 2:0.25 3:0.33333333 4:0.25 
1 1:0.6 2:0.28571429 3:0.33333333 4:0.11111111 
1 1:1 2:0.33333333 3:0.33333333 4:0.17647059 
1 1:1 2:0.28571429 3:0.33333333 4:0.25 
1 1:1 2:0.28571429 3:0.33333333 4:0.25 
1 1:0.6 2:0.25 3:0.36363636 4:0.11111111 
1 1:0.6 2:0.42857143 3:0.23076923 4:0.11111111 
1 1:0.6 2:0.28571429 3:0.33333333 4:0.11111111 
1 1:0.6 2:0.33333333 3:0.23076923 4:0.11111111 
1 1:0.6 2:0.28571429 3:0.23076923 4:0.11111111 
1 1:0.6 2:0.28571429 3:0.23076923 4:0.11111111 
1 1:0.6 2:0.33333333 3:0.33333333 4:0.17647059 
1 1:0.6 2:0.25 3:0.25 4:0.052631579 
1 1:0.6 2:0.22222222 3:0.23076923 4:0.11111111 
1 1:1 2:0.25 3:0.45454545 4:0.17647059 
1 1:1 2:0.22222222 3:0.33333333 4:0.25 
1 1:1 2:0.22222222 3:0.33333333 4:0.25 
1 1:1 2:0.25 3:0.33333333 4:0.25 
1 1:0.6 2:0.33333333 3:0.36363636 4:0.11111111 
1 1:0.6 2:0.28571429 3:0.23076923 4:0.17647059 
1 1:0.6 2:0.25 3:0.23076923 4:0.11111111 
1 1:0.6 2:0.25 3:0.33333333 4:0.17647059 
1 1:0.6 2:0.28571429 3:0.23076923 4:0.11111111 
1 1:0.6 2:0.22222222 3:0.36363636 4:0.11111111 
1 1:1 2:0.28571429 3:0.45454545 4:0.25 
1 1:1 2:0.28571429 3:0.6 4:0.17647059 
1 1:1 2:0.33333333 3:0.6 4:0.17647059 
1 1:0.6 2:0.25 3:0.36363636 4:0.052631579 
1 1:1 2:0.25 3:0.45454545 4:0.25 
1 1:1 2:0.28571429 3:0.45454545 4:0.33333333 
1 1:0.6 2:0.22222222 3:0.36363636 4:0.11111111 
1 1:0.6 2:0.22222222 3:0.5 4:0.17647059 
1 1:0.6 2:0.25 3:0.36363636 4:0.11111111 
1 1:0.36363636 2:0.33333333 3:0.33333333 4:0.10526316 
1 1:0.36363636 2:0.2 3:0.5 4:0.11764706 
1 1:1 2:1 3:0.8 4:0.125 
1 1:0.75 2:1 3:0.8 4:0.1875 
1 1:0.75 2:1 3:0.8 4:0.11764706 
1 1:0.36363636 2:0.14285714 3:0.33333333 4:0.23529412 
1 1:0.6 2:0.18181818 3:0.30769231 4:0.05 
1 1:0.36363636 2:0.1 3:0.66666667 4:0.052631579 
1 1:0.45454545 2:0.33333333 3:0.28571429 4:0.11111111 
1 1:0.77777778 2:0.33333333 3:0.38461538 4:0.11111111 
1 1:0.77777778 2:0.16666667 3:0.63636364 4:0.11111111 
1 1:0.77777778 2:0.5 3:0.38461538 4:0.052631579 
1 1:0.77777778 2:0.42857143 3:0.28571429 4:0.23529412 
1 1:0.45454545 2:0.4 3:0.38461538 4:0.16666667 
1 1:0.6 2:0.4 3:0.38461538 4:0.11111111 
1 1:0.45454545 2:0.6 3:0.38461538 4:0.055555556 
1 1:0.63636364 2:0.44444444 3:0.38461538 4:0.11764706 
1 1:0.63636364 2:0.4 3:0.38461538 4:0.052631579 
1 1:0.41666667 2:0.44444444 3:0.28571429 4:0.11111111 
1 1:0.63636364 2:0.36363636 3:0.5 4:0.11764706 
1 1:0.41666667 2:0.55555556 3:0.38461538 4:0.26666667 
1 1:0.7 2:0.36363636 3:0.5 4:0.11111111 
1 1:1 2:1 3:1 4:1 
1 1:1 2:1 3:1 4:1 
1 1:1 2:1 3:1 4:1 
1 1:0.36363636 2:0.33333333 3:0.33333333 4:0.11111111 
1 1:0.77777778 2:0.4 3:0.38461538 4:0.095238095 
1 1:0.77777778 2:1 3:0.63636364 4:0.095238095 
1 1:0.36363636 2:0.25 3:0.6 4:0.10526316 
1 1:0.5 2:0.4 3:0.38461538 4:0.045454545 
1 1:0.6 2:0.4 3:0.38461538 4:0.095238095 
1 1:0.6 2:0.4 3:0.38461538 4:0.095238095 
1 1:0.6 2:1 3:0.38461538 4:0.095238095 
1 1:0.45454545 2:0.4 3:0.38461538 4:0.1 
1 1:0.77777778 2:1 3:0.38461538 4:0.095238095 
1 1:0.5 2:0.33333333 3:0.38461538 4:0.045454545 
1 1:0.5 2:0.33333333 3:0.38461538 4:0.095238095 
1 1:0.5 2:1 3:0.5 4:0.095238095 
1 1:0.6 2:0.33333333 3:0.38461538 4:0.095238095 
1 1:0.77777778 2:1 3:0.38461538 4:0.095238095 
1 1:0.36363636 2:0.25 3:0.6 4:0.10526316 
1 1:0.6 2:0.4 3:0.38461538 4:0.15789474 
1 1:0.6 2:0.4 3:0.63636364 4:0.058823529 
1 1:0.45454545 2:0.4 3:0.5 4:0.1 
1 1:0.77777778 2:1 3:0.63636364 4:0.095238095 
1 1:0.6 2:0.4 3:0.38461538 4:0.095238095 
1 1:0.6 2:0.5 3:0.38461538 4:0.095238095 
1 1:0.45454545 2:1 3:0.5 4:0.095238095 
1 1:0.6 2:0.33333333 3:0.41666667 4:0.15 
1 1:0.6 2:0.33333333 3:0.38461538 4:0.15 
1 1:0.77777778 2:1 3:0.63636364 4:0.095238095 
1 1:0.5 2:0.33333333 3:0.38461538 4:0.095238095 
1 1:0.45454545 2:0.4 3:0.38461538 4:0.1 
1 1:0.45454545 2:0.33333333 3:0.7 4:0.15 
1 1:0.45454545 2:0.33333333 3:0.41666667 4:0.22222222 
1 1:0.45454545 2:0.5 3:0.5 4:0.15 
1 1:0.6 2:0.33333333 3:0.38461538 4:0.095238095 
1 1:0.45454545 2:1 3:0.5 4:0.15 
1 1:0.6 2:0.4 3:0.38461538 4:0.095238095 
1 1:0.6 2:0.4 3:0.38461538 4:0.095238095 
1 1:0.6 2:0.33333333 3:0.38461538 4:0.095238095 
1 1:0.6 2:0.4 3:0.38461538 4:0.05 
1 1:0.6 2:1 3:0.63636364 4:0.095238095 
1 1:0.5 2:0.4 3:0.38461538 4:0.095238095 
1 1:0.6 2:0.4 3:0.38461538 4:0.14285714 
1 1:0.36363636 2:0.2 3:0.45454545 4:0.1 
1 1:0.5 2:0.6 3:0.28571429 4:0.14285714 
1 1:0.45454545 2:0.33333333 3:0.38461538 4:0.14285714 
1 1:0.45454545 2:1 3:0.38461538 4:0.14285714 
1 1:0.45454545 2:0.4 3:0.38461538 4:0.14285714 
1 1:0.45454545 2:0.33333333 3:0.28571429 4:0.21052632 
1 1:0.6 2:0.4 3:0.38461538 4:0.14285714 
1 1:0.5 2:0.5 3:0.28571429 4:0.14285714 
1 1:0.5 2:0.5 3:0.28571429 4:0.14285714 
1 1:0.5 2:0.4 3:0.28571429 4:0.14285714 
1 1:0.45454545 2:0.5 3:0.38461538 4:0.14285714 
1 1:0.6 2:0.4 3:0.38461538 4:0.14285714 
1 1:0.36363636 2:0.2 3:0.45454545 4:0.1 
1 1:0.45454545 2:0.6 3:0.38461538 4:0.21052632 
1 1:0.45454545 2:0.33333333 3:0.38461538 4:0.055555556 
1 1:0.77777778 2:0.5 3:0.38461538 4:0.090909091 
1 1:0.45454545 2:0.33333333 3:0.28571429 4:0.15 
1 1:0.6 2:0.4 3:0.38461538 4:0.14285714 
1 1:0.6 2:1 3:0.28571429 4:0.14285714 
1 1:0.45454545 2:0.4 3:0.38461538 4:0.14285714 
1 1:0.45454545 2:0.4 3:0.28571429 4:0.14285714 
1 1:0.6 2:0.5 3:0.41666667 4:0.090909091 
1 1:0.6 2:0.4 3:0.38461538 4:0.14285714 
1 1:0.5 2:0.5 3:0.28571429 4:0.14285714 
1 1:0.45454545 2:0.33333333 3:0.28571429 4:0.21052632 
1 1:0.45454545 2:0.5 3:0.41666667 4:0.090909091 
1 1:0.45454545 2:0.5 3:0.41666667 4:0.095238095 
1 1:0.45454545 2:0.4 3:0.38461538 4:0.14285714 
1 1:0.45454545 2:0.4 3:0.38461538 4:0.090909091 
1 1:0.45454545 2:0.5 3:0.38461538 4:0.14285714 
1 1:0.45454545 2:0.4 3:0.38461538 4:0.14285714 
1 1:0.45454545 2:0.33333333 3:0.28571429 4:0.14285714 
1 1:0.45454545 2:1 3:0.38461538 4:0.14285714 
1 1:0.6 2:0.5 3:0.28571429 4:0.2 
1 1:0.45454545 2:0.33333333 3:0.38461538 4:0.1 
1 1:0.45454545 2:0.4 3:0.38461538 4:0.14285714 
1 1:0.5 2:0.33333333 3:0.28571429 4:0.14285714 
1 1:0.5 2:0.25 3:0.45454545 4:0.29411765 
1 1:0.5 2:0.4 3:0.28571429 4:0.090909091 
1 1:0.6 2:1 3:0.5 4:0.26315789 
1 1:0.45454545 2:0.4 3:0.28571429 4:0.15 
1 1:0.77777778 2:1 3:0.38461538 4:0.26315789 
1 1:0.5 2:0.33333333 3:0.28571429 4:0.090909091 
1 1:0.5 2:0.33333333 3:0.28571429 4:0.2 
1 1:0.5 2:1 3:0.38461538 4:0.2 
1 1:0.6 2:0.33333333 3:0.38461538 4:0.2 
1 1:0.5 2:0.25 3:0.45454545 4:0.29411765 
1 1:0.6 2:0.4 3:0.5 4:0.21052632 
1 1:0.6 2:0.4 3:0.8 4:0.11764706 
1 1:0.6 2:0.33333333 3:0.38461538 4:0.090909091 
1 1:0.45454545 2:0.4 3:0.38461538 4:0.21052632 
1 1:0.45454545 2:0.4 3:0.28571429 4:0.2 
1 1:0.45454545 2:1 3:0.38461538 4:0.14285714 
1 1:0.45454545 2:0.33333333 3:0.41666667 4:0.14285714 
1 1:0.45454545 2:0.33333333 3:0.38461538 4:0.14285714 
1 1:0.5 2:0.33333333 3:0.28571429 4:0.2 
1 1:0.45454545 2:0.4 3:0.28571429 4:0.15 
1 1:0.45454545 2:0.33333333 3:0.7 4:0.090909091 
1 1:0.45454545 2:0.33333333 3:0.41666667 4:0.15 
1 1:0.45454545 2:0.5 3:0.38461538 4:0.14285714 
1 1:0.45454545 2:1 3:0.38461538 4:0.2 
1 1:0.6 2:0.4 3:0.28571429 4:0.26315789 
1 1:0.45454545 2:0.33333333 3:0.28571429 4:0.14285714 
1 1:0.6 2:0.4 3:0.38461538 4:0.22222222 
1 1:0.6 2:1 3:0.8 4:0.26315789 
1 1:0.5 2:0.4 3:0.28571429 4:0.14285714 
1 1:0.4 2:0.2 3:0.33333333 4:0.047619048 
1 1:0.36363636 2:0.2 3:0.45454545 4:0.29411765 
1 1:0.36363636 2:0.2 3:0.45454545 4:0.22222222 
1 1:0.36363636 2:0.25 3:0.45454545 4:0.22222222 
1 1:0.36363636 2:0.2 3:0.33333333 4:0.10526316 
1 1:0.36363636 2:0.25 3:0.45454545 4:0.22222222 
1 1:0.4 2:0.16666667 3:0.33333333 4:0.047619048 
1 1:0.4 2:0.16666667 3:0.33333333 4:0.15789474 
1 1:0.4 2:0.25 3:0.33333333 4:0.15789474 
1 1:0.36363636 2:0.16666667 3:0.45454545 4:0.15789474 
1 1:0.36363636 2:0.25 3:0.45454545 4:0.29411765 
1 1:1 2:1 3:1 4:1 
1 1:0.36363636 2:0.2 3:0.45454545 4:0.23529412 
1 1:0.36363636 2:0.2 3:0.45454545 4:0.21428571 
1 1:0.36363636 2:0.16666667 3:0.45454545 4:0.1 
1 1:0.36363636 2:0.2 3:0.33333333 4:0.16666667 
1 1:0.36363636 2:0.25 3:0.45454545 4:0.22222222 
1 1:0.36363636 2:0.2 3:0.33333333 4:0.15789474 
1 1:0.36363636 2:0.25 3:0.45454545 4:0.15789474 
1 1:0.36363636 2:0.25 3:0.33333333 4:0.1 
1 1:0.36363636 2:0.16666667 3:0.5 4:0.1 
1 1:0.36363636 2:0.16666667 3:0.45454545 4:0.15789474 
1 1:0.5 2:0.25 3:0.45454545 4:0.22222222 
1 1:0.4 2:0.16666667 3:0.33333333 4:0.15789474 
1 1:0.36363636 2:0.2 3:0.33333333 4:0.10526316 
1 1:0.36363636 2:0.16666667 3:0.5 4:0.047619048 
1 1:0.36363636 2:0.16666667 3:0.5 4:0.16666667 
1 1:0.36363636 2:0.25 3:0.6 4:0.22222222 
1 1:0.36363636 2:0.25 3:0.45454545 4:0.1 
1 1:0.5 2:0.16666667 3:0.45454545 4:0.22222222 
1 1:0.36363636 2:0.25 3:0.6 4:0.15789474 
1 1:0.36363636 2:0.2 3:0.33333333 4:0.22222222 
1 1:0.36363636 2:0.2 3:0.45454545 4:0.22222222 
1 1:0.36363636 2:0.16666667 3:0.33333333 4:0.1 
1 1:0.36363636 2:0.2 3:0.6 4:0.17647059 
1 1:0.36363636 2:0.25 3:0.45454545 4:0.22222222 
1 1:0.4 2:0.2 3:0.33333333 4:0.1 
1 1:0.66666667 2:0.33333333 3:0.28571429 4:0.090909091 
1 1:0.66666667 2:0.6 3:0.28571429 4:0.090909091 
1 1:0.66666667 2:0.4 3:0.28571429 4:0.090909091 
1 1:0.5 2:0.4 3:0.28571429 4:0.090909091 
1 1:0.75 2:0.5 3:0.5 4:0.090909091 
1 1:0.75 2:0.4 3:0.5 4:0.14285714 
1 1:0.66666667 2:0.5 3:0.28571429 4:0.090909091 
1 1:0.5 2:0.4 3:0.28571429 4:0.090909091 
1 1:0.4 2:0.2 3:0.33333333 4:0.047619048 
1 1:0.66666667 2:0.6 3:0.28571429 4:0.15 
1 1:0.66666667 2:0.33333333 3:0.28571429 4:0.055555556 
1 1:0.5 2:0.5 3:0.38461538 4:0.090909091 
1 1:0.875 2:0.33333333 3:0.5 4:0.15 
1 1:0.5 2:0.4 3:0.38461538 4:0.14285714 
1 1:0.66666667 2:0.6 3:0.38461538 4:0.090909091 
1 1:0.66666667 2:0.4 3:0.38461538 4:0.14285714 
1 1:0.66666667 2:0.4 3:0.38461538 4:0.090909091 
1 1:0.66666667 2:0.5 3:0.30769231 4:0.043478261 
1 1:0.66666667 2:0.5 3:0.28571429 4:0.090909091 
1 1:0.5 2:0.4 3:0.28571429 4:0.090909091 
1 1:0.75 2:0.5 3:0.5 4:0.090909091 
1 1:0.66666667 2:0.5 3:0.30769231 4:0.043478261 
1 1:0.66666667 2:0.5 3:0.41666667 4:0.095238095 
1 1:0.66666667 2:0.4 3:0.28571429 4:0.090909091 
1 1:0.66666667 2:0.4 3:0.5 4:0.090909091 
1 1:0.66666667 2:0.5 3:0.28571429 4:0.090909091 
1 1:0.66666667 2:0.4 3:0.28571429 4:0.090909091 
1 1:0.66666667 2:0.33333333 3:0.38461538 4:0.090909091 
1 1:0.66666667 2:0.6 3:0.28571429 4:0.090909091 
1 1:0.66666667 2:0.5 3:0.38461538 4:0.14285714 
1 1:0.5 2:0.33333333 3:0.28571429 4:0.1 
1 1:0.66666667 2:0.4 3:0.28571429 4:0.14285714 
1 1:0.75 2:0.33333333 3:0.38461538 4:0.090909091 
1 1:0.6 2:0.33333333 3:0.28571429 4:0.15 
1 1:0.66666667 2:0.28571429 3:0.38461538 4:0.14285714 
1 1:0.66666667 2:0.4 3:0.28571429 4:0.2 
1 1:0.36363636 2:0.2 3:0.45454545 4:0.29411765 
1 1:1 2:0.33333333 3:0.5 4:0.21052632 
1 1:1 2:0.33333333 3:0.5 4:0.11764706 
1 1:0.45454545 2:0.28571429 3:0.38461538 4:0.090909091 
1 1:0.6 2:1 3:0.38461538 4:0.27777778 
1 1:0.6 2:0.33333333 3:0.28571429 4:0.2 
1 1:1 2:0.4 3:0.5 4:0.2 
1 1:0.6 2:0.4 3:0.28571429 4:0.14285714 
1 1:0.6 2:0.5 3:0.41666667 4:0.14285714 
1 1:0.6 2:0.28571429 3:0.38461538 4:0.14285714 
1 1:0.6 2:0.33333333 3:0.38461538 4:0.21052632 
1 1:0.6 2:0.5 3:0.54545455 4:0.14285714 
1 1:0.6 2:0.28571429 3:0.41666667 4:0.15 
1 1:1 2:0.4 3:0.38461538 4:0.2 
1 1:0.6 2:0.4 3:0.38461538 4:0.14285714 
1 1:0.6 2:0.4 3:0.38461538 4:0.2 
1 1:1 2:0.6 3:0.28571429 4:0.33333333 
1 1:0.6 2:0.28571429 3:0.28571429 4:0.14285714 
1 1:0.77777778 2:0.33333333 3:0.38461538 4:0.22222222 
1 1:0.66666667 2:0.33333333 3:0.28571429 4:0.14285714 
1 1:0.6 2:0.33333333 3:0.28571429 4:0.15 
1 1:0.66666667 2:0.5 3:0.28571429 4:0.090909091 
1 1:0.66666667 2:0.5 3:0.28571429 4:0.2 
1 1:0.66666667 2:0.4 3:0.28571429 4:0.2 
1 1:0.36363636 2:0.2 3:0.45454545 4:0.22222222 
1 1:1 2:0.33333333 3:0.5 4:0.11764706 
1 1:0.45454545 2:0.5 3:0.38461538 4:0.090909091 
1 1:0.6 2:0.33333333 3:0.28571429 4:0.21052632 
1 1:0.6 2:1 3:0.28571429 4:0.2 
1 1:1 2:0.4 3:0.5 4:0.2 
1 1:0.6 2:0.4 3:0.28571429 4:0.14285714 
1 1:0.6 2:0.5 3:0.41666667 4:0.14285714 
1 1:0.6 2:0.5 3:0.38461538 4:0.14285714 
1 1:0.66666667 2:0.5 3:0.28571429 4:0.2 
1 1:0.6 2:0.33333333 3:0.28571429 4:0.15 
1 1:0.6 2:0.5 3:0.41666667 4:0.090909091 
1 1:0.6 2:0.5 3:0.41666667 4:0.15 
1 1:1 2:0.4 3:0.38461538 4:0.2 
1 1:0.6 2:0.4 3:0.38461538 4:0.14285714 
1 1:0.6 2:0.4 3:0.38461538 4:0.2 
1 1:1 2:0.33333333 3:0.28571429 4:0.26315789 
1 1:1 2:1 3:1 4:1 
1 1:0.6 2:0.5 3:0.28571429 4:0.14285714 
1 1:0.77777778 2:0.33333333 3:0.38461538 4:0.22222222 
1 1:0.66666667 2:0.33333333 3:0.28571429 4:0.14285714 
1 1:0.6 2:0.4 3:0.28571429 4:0.15 
1 1:0.77777778 2:1 3:0.38461538 4:0.41176471 
1 1:0.66666667 2:0.33333333 3:0.38461538 4:0.14285714 
1 1:0.66666667 2:0.33333333 3:0.38461538 4:0.26315789 
1 1:0.66666667 2:1 3:0.28571429 4:0.2 
1 1:0.77777778 2:0.33333333 3:0.38461538 4:0.2 
1 1:0.77777778 2:1 3:0.5 4:0.26315789 
1 1:0.36363636 2:0.25 3:0.45454545 4:0.22222222 
1 1:1 2:0.4 3:0.5 4:0.11764706 
1 1:0.45454545 2:0.33333333 3:0.38461538 4:0.090909091 
1 1:0.6 2:0.4 3:0.38461538 4:0.27777778 
1 1:0.6 2:0.4 3:0.28571429 4:0.2 
1 1:0.6 2:1 3:0.28571429 4:0.14285714 
1 1:0.6 2:0.33333333 3:0.41666667 4:0.14285714 
1 1:0.6 2:0.33333333 3:0.38461538 4:0.14285714 
1 1:0.6 2:1 3:0.5 4:0.26315789 
1 1:0.66666667 2:0.33333333 3:0.38461538 4:0.26315789 
1 1:0.6 2:0.4 3:0.38461538 4:0.21052632 
1 1:0.6 2:0.33333333 3:0.54545455 4:0.14285714 
1 1:0.6 2:0.33333333 3:0.41666667 4:0.15 
1 1:1 2:0.5 3:0.38461538 4:0.2 
1 1:0.6 2:0.5 3:0.38461538 4:0.14285714 
1 1:0.6 2:1 3:0.38461538 4:0.2 
1 1:1 2:0.4 3:0.28571429 4:0.33333333 
1 1:0.6 2:0.33333333 3:0.28571429 4:0.14285714 
1 1:0.77777778 2:0.4 3:0.38461538 4:0.22222222 
1 1:0.66666667 2:0.4 3:0.28571429 4:0.14285714 
1 1:0.45454545 2:0.4 3:0.28571429 4:0.15 
1 1:0.66666667 2:0.28571429 3:0.5 4:0.15 
1 1:0.66666667 2:0.4 3:0.38461538 4:0.15 
1 1:0.6 2:0.28571429 3:0.28571429 4:0.15 
1 1:0.45454545 2:0.4 3:0.38461538 4:0.15 
1 1:0.36363636 2:0.2 3:0.33333333 4:0.10526316 
1 1:0.6 2:0.33333333 3:0.38461538 4:0.29411765 
1 1:0.6 2:0.6 3:0.38461538 4:0.125 
1 1:0.45454545 2:0.5 3:0.38461538 4:0.095238095 
1 1:1 2:0.33333333 3:0.5 4:0.22222222 
1 1:0.45454545 2:0.4 3:0.28571429 4:0.15 
1 1:0.6 2:0.33333333 3:0.38461538 4:0.15 
1 1:0.6 2:0.4 3:0.28571429 4:0.15 
1 1:0.6 2:0.4 3:0.38461538 4:0.15 
1 1:0.6 2:0.28571429 3:0.30769231 4:0.15 
1 1:0.6 2:0.5 3:0.28571429 4:0.21052632 
1 1:0.45454545 2:0.4 3:0.28571429 4:0.15 
1 1:0.66666667 2:0.28571429 3:0.5 4:0.15 
1 1:0.6 2:0.28571429 3:0.30769231 4:0.095238095 
1 1:0.6 2:0.5 3:0.30769231 4:0.1 
1 1:0.6 2:0.4 3:0.28571429 4:0.15 
1 1:0.6 2:0.4 3:0.38461538 4:0.095238095 
1 1:0.6 2:0.5 3:0.38461538 4:0.21052632 
1 1:0.6 2:0.4 3:0.28571429 4:0.15 
1 1:0.6 2:0.33333333 3:0.38461538 4:0.15 
1 1:0.6 2:0.33333333 3:0.28571429 4:0.15 
1 1:0.6 2:0.5 3:0.38461538 4:0.21052632 
1 1:0.45454545 2:0.6 3:0.38461538 4:0.16666667 
1 1:0.6 2:0.4 3:0.28571429 4:0.15 
1 1:0.66666667 2:0.6 3:0.38461538 4:0.15 
1 1:0.5 2:0.33333333 3:0.28571429 4:0.14285714 
1 1:0.5 2:0.33333333 3:0.28571429 4:0.26315789 
1 1:0.5 2:1 3:0.28571429 4:0.2 
1 1:0.6 2:0.33333333 3:0.5 4:0.2 
1 1:1 2:1 3:0.38461538 4:0.26315789 
1 1:0.36363636 2:0.25 3:0.45454545 4:0.22222222 
1 1:0.77777778 2:0.4 3:0.38461538 4:0.21052632 
1 1:0.77777778 2:0.4 3:0.38461538 4:0.11764706 
1 1:0.6 2:0.33333333 3:0.38461538 4:0.090909091 
1 1:0.45454545 2:0.4 3:0.28571429 4:0.27777778 
1 1:1 2:1 3:0.38461538 4:0.33333333 
1 1:0.45454545 2:0.4 3:0.28571429 4:0.2 
1 1:0.45454545 2:1 3:0.28571429 4:0.14285714 
1 1:0.45454545 2:0.33333333 3:0.41666667 4:0.14285714 
1 1:0.45454545 2:0.33333333 3:0.38461538 4:0.14285714 
1 1:0.77777778 2:1 3:0.38461538 4:0.26315789 
1 1:0.5 2:0.33333333 3:0.28571429 4:0.26315789 
1 1:0.45454545 2:0.4 3:0.28571429 4:0.21052632 
1 1:0.45454545 2:0.33333333 3:0.41666667 4:0.14285714 
1 1:0.45454545 2:0.33333333 3:0.41666667 4:0.15 
1 1:0.45454545 2:0.5 3:0.38461538 4:0.14285714 
1 1:0.6 2:0.33333333 3:0.38461538 4:0.26315789 
1 1:0.45454545 2:1 3:0.5 4:0.2 
1 1:0.77777778 2:0.4 3:0.28571429 4:0.33333333 
1 1:0.45454545 2:0.33333333 3:0.28571429 4:0.14285714 
1 1:0.77777778 2:0.4 3:0.38461538 4:0.22222222 
1 1:0.77777778 2:1 3:0.38461538 4:0.33333333 
1 1:0.5 2:0.4 3:0.28571429 4:0.14285714 
1 1:0.75 2:0.33333333 3:0.38461538 4:0.090909091 
1 1:0.66666667 2:0.42857143 3:0.28571429 4:0.090909091 
1 1:0.5 2:0.33333333 3:0.28571429 4:0.090909091 
1 1:0.4 2:0.16666667 3:0.33333333 4:0.047619048 
1 1:0.66666667 2:0.5 3:0.28571429 4:0.15 
1 1:0.66666667 2:0.5 3:0.28571429 4:0.055555556 
1 1:0.5 2:0.66666667 3:0.38461538 4:0.043478261 
1 1:0.5 2:0.33333333 3:0.28571429 4:0.090909091 
1 1:0.66666667 2:0.5 3:0.38461538 4:0.090909091 
1 1:0.66666667 2:0.33333333 3:0.28571429 4:0.090909091 
1 1:0.66666667 2:0.33333333 3:0.38461538 4:0.090909091 
1 1:0.66666667 2:0.42857143 3:0.30769231 4:0.043478261 
1 1:0.66666667 2:0.66666667 3:0.28571429 4:0.090909091 
1 1:0.5 2:0.33333333 3:0.28571429 4:0.090909091 
1 1:0.66666667 2:0.42857143 3:0.41666667 4:0.090909091 
1 1:0.66666667 2:0.66666667 3:0.30769231 4:0.045454545 
1 1:0.66666667 2:0.33333333 3:0.28571429 4:0.090909091 
1 1:0.66666667 2:0.33333333 3:0.38461538 4:0.043478261 
1 1:0.66666667 2:0.66666667 3:0.28571429 4:0.090909091 
1 1:0.66666667 2:0.33333333 3:0.28571429 4:0.090909091 
1 1:0.66666667 2:0.28571429 3:0.38461538 4:0.14285714 
1 1:0.66666667 2:0.5 3:0.28571429 4:0.090909091 
1 1:0.66666667 2:0.66666667 3:0.38461538 4:0.14285714 
1 1:0.5 2:0.5 3:0.28571429 4:0.1 
1 1:0.66666667 2:0.33333333 3:0.28571429 4:0.090909091 
1 1:0.75 2:0.5 3:0.38461538 4:0.090909091 
1 1:0.75 2:0.33333333 3:0.38461538 4:0.2 
1 1:0.66666667 2:0.66666667 3:0.28571429 4:0.2 
1 1:0.5 2:0.33333333 3:0.28571429 4:0.2 
1 1:0.4 2:0.16666667 3:0.33333333 4:0.15789474 
1 1:0.66666667 2:0.5 3:0.28571429 4:0.15 
1 1:0.66666667 2:0.28571429 3:0.28571429 4:0.11764706 
1 1:0.5 2:0.42857143 3:0.38461538 4:0.090909091 
1 1:0.5 2:0.33333333 3:0.28571429 4:0.2 
1 1:0.66666667 2:0.5 3:0.38461538 4:0.2 
1 1:0.66666667 2:0.33333333 3:0.28571429 4:0.2 
1 1:0.66666667 2:0.33333333 3:0.38461538 4:0.14285714 
1 1:0.66666667 2:0.66666667 3:0.30769231 4:0.14285714 
1 1:0.66666667 2:0.42857143 3:0.28571429 4:0.14285714 
1 1:0.5 2:0.33333333 3:0.28571429 4:0.2 
1 1:0.66666667 2:0.28571429 3:0.63636364 4:0.21052632 
1 1:0.66666667 2:0.66666667 3:0.41666667 4:0.14285714 
1 1:0.66666667 2:0.42857143 3:0.30769231 4:0.15 
1 1:0.66666667 2:0.33333333 3:0.28571429 4:0.14285714 
1 1:0.66666667 2:0.33333333 3:0.38461538 4:0.14285714 
1 1:0.66666667 2:0.42857143 3:0.28571429 4:0.2 
1 1:0.66666667 2:0.33333333 3:0.28571429 4:0.2 
1 1:0.66666667 2:0.5 3:0.28571429 4:0.2 
1 1:0.66666667 2:0.42857143 3:0.38461538 4:0.14285714 
1 1:0.5 2:0.28571429 3:0.28571429 4:0.15789474 
1 1:0.66666667 2:0.33333333 3:0.28571429 4:0.2 
1 1:0.75 2:0.28571429 3:0.38461538 4:0.14285714 
1 1:0.66666667 2:0.33333333 3:0.28571429 4:0.2 
1 1:0.5 2:1 3:0.28571429 4:0.2 
1 1:0.4 2:0.25 3:0.33333333 4:0.15789474 
1 1:0.66666667 2:0.4 3:0.28571429 4:0.15 
1 1:0.66666667 2:0.4 3:0.38461538 4:0.11764706 
1 1:0.5 2:0.33333333 3:0.38461538 4:0.14285714 
1 1:0.5 2:1 3:0.5 4:0.26315789 
1 1:0.66666667 2:0.4 3:0.38461538 4:0.2 
1 1:0.875 2:1 3:0.8 4:0.2 
1 1:0.66666667 2:0.33333333 3:0.30769231 4:0.14285714 
1 1:0.66666667 2:0.33333333 3:0.28571429 4:0.14285714 
1 1:0.5 2:1 3:0.38461538 4:0.2 
1 1:0.75 2:0.33333333 3:0.38461538 4:0.2 
1 1:0.66666667 2:0.4 3:0.38461538 4:0.15 
1 1:0.66666667 2:0.33333333 3:0.41666667 4:0.090909091 
1 1:0.66666667 2:0.33333333 3:0.41666667 4:0.21052632 
1 1:0.66666667 2:0.5 3:0.38461538 4:0.14285714 
1 1:0.66666667 2:0.33333333 3:0.28571429 4:0.2 
1 1:0.66666667 2:1 3:0.28571429 4:0.2 
1 1:0.66666667 2:0.4 3:0.38461538 4:0.2 
1 1:0.66666667 2:0.4 3:0.28571429 4:0.2 
1 1:0.66666667 2:0.33333333 3:0.38461538 4:0.14285714 
1 1:0.5 2:0.4 3:0.28571429 4:0.15789474 
1 1:0.66666667 2:1 3:0.38461538 4:0.26315789 
1 1:1 2:0.4 3:0.5 4:0.2 
1 1:0.6 2:0.33333333 3:0.38461538 4:0.2 
1 1:0.36363636 2:0.16666667 3:0.45454545 4:0.15789474 
1 1:0.77777778 2:0.5 3:0.38461538 4:0.15 
1 1:0.77777778 2:0.28571429 3:0.38461538 4:0.11764706 
1 1:0.45454545 2:0.42857143 3:0.38461538 4:0.090909091 
1 1:0.6 2:0.5 3:0.28571429 4:0.21052632 
1 1:0.6 2:0.33333333 3:0.38461538 4:0.2 
1 1:0.6 2:0.5 3:0.28571429 4:0.2 
1 1:0.77777778 2:0.33333333 3:0.38461538 4:0.2 
1 1:0.6 2:0.33333333 3:0.28571429 4:0.14285714 
1 1:0.6 2:0.66666667 3:0.41666667 4:0.14285714 
1 1:0.6 2:0.42857143 3:0.38461538 4:0.14285714 
1 1:0.6 2:0.33333333 3:0.38461538 4:0.2 
1 1:0.66666667 2:0.66666667 3:0.28571429 4:0.2 
1 1:0.6 2:0.28571429 3:0.28571429 4:0.15 
1 1:0.6 2:1 3:0.41666667 4:0.090909091 
1 1:0.6 2:0.42857143 3:0.41666667 4:0.15 
1 1:0.77777778 2:0.33333333 3:0.5 4:0.14285714 
1 1:0.6 2:0.33333333 3:0.38461538 4:0.14285714 
1 1:0.77777778 2:0.42857143 3:0.38461538 4:0.2 
1 1:0.6 2:0.33333333 3:0.5 4:0.26315789 
1 1:0.77777778 2:0.5 3:0.28571429 4:0.2 
1 1:0.6 2:0.42857143 3:0.28571429 4:0.14285714 
1 1:0.6 2:0.28571429 3:0.38461538 4:0.15789474 
1 1:0.77777778 2:0.33333333 3:0.38461538 4:0.2 
1 1:0.66666667 2:0.28571429 3:0.28571429 4:0.14285714 
1 1:0.36363636 2:0.25 3:0.45454545 4:0.29411765 
1 1:0.6 2:0.33333333 3:0.38461538 4:0.090909091 
1 1:0.45454545 2:0.4 3:0.28571429 4:0.21052632 
1 1:1 2:1 3:0.5 4:0.26315789 
1 1:0.45454545 2:0.4 3:0.28571429 4:0.2 
1 1:0.45454545 2:1 3:0.28571429 4:0.14285714 
1 1:0.45454545 2:0.33333333 3:0.41666667 4:0.14285714 
1 1:0.45454545 2:0.33333333 3:0.38461538 4:0.14285714 
1 1:0.77777778 2:1 3:0.5 4:0.26315789 
1 1:0.5 2:0.33333333 3:0.28571429 4:0.2 
1 1:0.45454545 2:0.4 3:0.28571429 4:0.15 
1 1:0.45454545 2:0.33333333 3:0.41666667 4:0.090909091 
1 1:0.45454545 2:0.33333333 3:0.41666667 4:0.15 
1 1:0.45454545 2:0.5 3:0.38461538 4:0.14285714 
1 1:0.45454545 2:1 3:0.38461538 4:0.2 
1 1:0.77777778 2:0.4 3:0.28571429 4:0.26315789 
1 1:0.45454545 2:0.33333333 3:0.28571429 4:0.14285714 
1 1:0.77777778 2:1 3:0.5 4:0.26315789 
1 1:0.5 2:0.4 3:0.28571429 4:0.14285714 
1 1:0.36363636 2:0.2 3:0.45454545 4:0.23529412 
1 1:0.36363636 2:0.2 3:0.45454545 4:0.21428571 
1 1:0.36363636 2:0.16666667 3:0.45454545 4:0.1 
1 1:0.36363636 2:0.2 3:0.33333333 4:0.16666667 
1 1:0.36363636 2:0.25 3:0.45454545 4:0.22222222 
1 1:0.36363636 2:0.2 3:0.33333333 4:0.15789474 
1 1:0.36363636 2:0.25 3:0.45454545 4:0.15789474 
1 1:0.36363636 2:0.25 3:0.33333333 4:0.1 
1 1:0.36363636 2:0.16666667 3:0.5 4:0.1 
1 1:0.36363636 2:0.16666667 3:0.45454545 4:0.15789474 
1 1:0.5 2:0.25 3:0.45454545 4:0.22222222 
1 1:0.4 2:0.16666667 3:0.33333333 4:0.15789474 
1 1:0.36363636 2:0.2 3:0.33333333 4:0.10526316 
1 1:0.36363636 2:0.16666667 3:0.5 4:0.047619048 
1 1:0.36363636 2:0.16666667 3:0.5 4:0.16666667 
1 1:0.36363636 2:0.25 3:0.6 4:0.22222222 
1 1:0.36363636 2:0.25 3:0.45454545 4:0.1 
1 1:0.5 2:0.16666667 3:0.45454545 4:0.22222222 
1 1:0.36363636 2:0.25 3:0.6 4:0.15789474 
1 1:0.36363636 2:0.2 3:0.33333333 4:0.22222222 
1 1:0.36363636 2:0.2 3:0.45454545 4:0.22222222 
1 1:0.36363636 2:0.16666667 3:0.33333333 4:0.1 
1 1:0.36363636 2:0.2 3:0.6 4:0.17647059 
1 1:0.36363636 2:0.25 3:0.45454545 4:0.22222222 
1 1:0.4 2:0.2 3:0.33333333 4:0.1 
1 1:0.45454545 2:0.5 3:0.38461538 4:0.15 
1 1:0.6 2:0.33333333 3:0.28571429 4:0.15789474 
1 1:0.6 2:0.6 3:0.28571429 4:0.15 
1 1:1 2:0.4 3:0.5 4:0.15 
1 1:0.6 2:0.4 3:0.28571429 4:0.15 
1 1:0.6 2:0.5 3:0.41666667 4:0.15 
1 1:0.6 2:0.4 3:0.5 4:0.21052632 
1 1:0.66666667 2:0.5 3:0.28571429 4:0.15 
1 1:0.6 2:0.33333333 3:0.28571429 4:0.22222222 
1 1:0.6 2:0.5 3:0.41666667 4:0.095238095 
1 1:0.6 2:0.5 3:0.41666667 4:0.15789474 
1 1:1 2:0.4 3:0.38461538 4:0.27777778 
1 1:0.6 2:0.4 3:0.38461538 4:0.095238095 
1 1:0.6 2:0.4 3:0.38461538 4:0.15 
1 1:1 2:0.33333333 3:0.28571429 4:0.21052632 
1 1:0.6 2:0.5 3:0.28571429 4:0.21052632 
1 1:0.66666667 2:0.33333333 3:0.28571429 4:0.15 
1 1:0.45454545 2:0.5 3:0.38461538 4:0.055555556 
1 1:0.6 2:0.33333333 3:0.38461538 4:0.125 
1 1:0.6 2:0.33333333 3:0.28571429 4:0.11764706 
1 1:1 2:0.4 3:0.5 4:0.11764706 
1 1:0.6 2:0.4 3:0.38461538 4:0.055555556 
1 1:0.6 2:0.28571429 3:0.41666667 4:0.11764706 
1 1:0.6 2:0.5 3:0.38461538 4:0.1875 
1 1:0.6 2:0.4 3:0.8 4:0.11764706 
1 1:0.66666667 2:0.28571429 3:0.28571429 4:0.11764706 
1 1:0.6 2:1 3:0.28571429 4:0.058823529 
1 1:0.6 2:0.28571429 3:0.7 4:0 
1 1:0.6 2:0.5 3:0.41666667 4:0.125 
1 1:1 2:0.4 3:0.63636364 4:0.11764706 
1 1:0.6 2:0.4 3:0.38461538 4:0.055555556 
1 1:0.6 2:0.4 3:0.38461538 4:0.11764706 
1 1:1 2:0.33333333 3:0.28571429 4:0.11764706 
1 1:1 2:0.33333333 3:0.5 4:0.11764706 
1 1:0.6 2:0.5 3:0.28571429 4:0.055555556 
1 1:0.77777778 2:1 3:0.5 4:0.21428571 
1 1:1 2:0.4 3:0.8 4:0.11764706 
1 1:0.66666667 2:1 3:0.28571429 4:0.055555556 
1 1:0.45454545 2:0.28571429 3:0.38461538 4:0.095238095 
1 1:0.6 2:0.33333333 3:0.38461538 4:0.14285714 
1 1:0.6 2:0.5 3:0.38461538 4:0.090909091 
1 1:0.45454545 2:0.33333333 3:0.38461538 4:0.14285714 
1 1:0.45454545 2:0.33333333 3:0.38461538 4:0.090909091 
1 1:0.6 2:0.42857143 3:0.41666667 4:0.14285714 
1 1:0.6 2:0.66666667 3:0.38461538 4:0.14285714 
1 1:0.6 2:0.33333333 3:0.38461538 4:0.090909091 
1 1:0.5 2:0.42857143 3:0.38461538 4:0.090909091 
1 1:0.45454545 2:0.5 3:0.38461538 4:0.095238095 
1 1:0.45454545 2:0.42857143 3:0.41666667 4:0.14285714 
1 1:0.45454545 2:0.66666667 3:0.41666667 4:0.27777778 
1 1:0.45454545 2:0.33333333 3:0.38461538 4:0.14285714 
1 1:0.45454545 2:0.33333333 3:0.5 4:0.2 
1 1:0.45454545 2:0.66666667 3:0.38461538 4:0.090909091 
1 1:0.45454545 2:0.33333333 3:0.38461538 4:0.090909091 
1 1:0.45454545 2:0.28571429 3:0.38461538 4:0.090909091 
1 1:0.45454545 2:0.5 3:0.38461538 4:0.090909091 
1 1:0.6 2:0.66666667 3:0.38461538 4:0.090909091 
1 1:0.45454545 2:0.5 3:0.38461538 4:0.047619048 
1 1:0.45454545 2:0.33333333 3:0.38461538 4:0.14285714 
1 1:0.5 2:0.5 3:0.38461538 4:0.090909091 
1 1:0.45454545 2:0.4 3:0.38461538 4:0.21052632 
1 1:0.6 2:0.33333333 3:0.38461538 4:0.21052632 
1 1:0.6 2:0.4 3:0.28571429 4:0.21052632 
1 1:0.6 2:0.4 3:0.5 4:0.15 
1 1:0.6 2:0.5 3:0.30769231 4:0.15 
1 1:0.6 2:0.28571429 3:0.28571429 4:0.15 
1 1:0.45454545 2:0.4 3:0.38461538 4:0.21052632 
1 1:0.6 2:0.28571429 3:0.30769231 4:0.15789474 
1 1:0.6 2:0.4 3:0.38461538 4:0.15 
1 1:0.6 2:0.4 3:0.38461538 4:0.15 
1 1:0.6 2:0.28571429 3:0.28571429 4:0.21052632 
1 1:0.6 2:0.4 3:0.28571429 4:0.21052632 
1 1:0.6 2:0.33333333 3:0.28571429 4:0.21052632 
1 1:0.6 2:0.28571429 3:0.38461538 4:0.15 
1 1:0.45454545 2:0.33333333 3:0.28571429 4:0.16666667 
1 1:0.6 2:0.4 3:0.38461538 4:0.21052632 
1 1:0.66666667 2:0.33333333 3:0.38461538 4:0.15 
1 1:0.45454545 2:0.4 3:0.28571429 4:0.2 
1 1:0.45454545 2:1 3:0.38461538 4:0.14285714 
1 1:0.45454545 2:0.33333333 3:0.41666667 4:0.14285714 
1 1:0.45454545 2:0.33333333 3:0.38461538 4:0.14285714 
1 1:0.5 2:0.33333333 3:0.28571429 4:0.2 
1 1:0.45454545 2:0.4 3:0.28571429 4:0.15 
1 1:0.45454545 2:0.33333333 3:0.7 4:0.090909091 
1 1:0.45454545 2:0.33333333 3:0.54545455 4:0.21052632 
1 1:0.45454545 2:0.5 3:0.5 4:0.2 
1 1:0.45454545 2:1 3:0.38461538 4:0.2 
1 1:0.77777778 2:0.4 3:0.28571429 4:0.26315789 
1 1:0.45454545 2:0.33333333 3:0.28571429 4:0.14285714 
1 1:0.77777778 2:0.4 3:0.38461538 4:0.22222222 
1 1:0.5 2:0.4 3:0.28571429 4:0.14285714 
1 1:0.6 2:0.4 3:0.28571429 4:0.2 
1 1:0.6 2:0.4 3:0.38461538 4:0.14285714 
1 1:0.77777778 2:0.5 3:0.30769231 4:0.14285714 
1 1:0.77777778 2:0.5 3:0.28571429 4:0.14285714 
1 1:0.45454545 2:0.4 3:0.28571429 4:0.2 
1 1:0.66666667 2:0.5 3:0.38461538 4:0.2 
1 1:0.6 2:0.33333333 3:0.38461538 4:0.15 
1 1:0.6 2:0.5 3:0.30769231 4:0.090909091 
1 1:0.6 2:0.5 3:0.30769231 4:0.15 
1 1:0.6 2:0.4 3:0.28571429 4:0.14285714 
1 1:0.6 2:0.4 3:0.38461538 4:0.14285714 
1 1:0.6 2:0.5 3:0.28571429 4:0.2 
1 1:0.6 2:0.4 3:0.28571429 4:0.2 
1 1:0.6 2:0.33333333 3:0.38461538 4:0.2 
1 1:0.6 2:1 3:0.28571429 4:0.2 
1 1:0.45454545 2:0.33333333 3:0.28571429 4:0.15789474 
1 1:0.6 2:0.4 3:0.28571429 4:0.2 
1 1:0.66666667 2:0.33333333 3:0.38461538 4:0.14285714 
1 1:0.6 2:0.5 3:0.28571429 4:0.14285714 
1 1:0.6 2:0.33333333 3:0.41666667 4:0.14285714 
1 1:0.6 2:0.33333333 3:0.38461538 4:0.14285714 
1 1:0.66666667 2:0.33333333 3:0.28571429 4:0.2 
1 1:0.6 2:0.4 3:0.28571429 4:0.15 
1 1:0.6 2:0.33333333 3:0.41666667 4:0.090909091 
1 1:0.6 2:0.33333333 3:0.54545455 4:0.21052632 
1 1:1 2:0.5 3:0.38461538 4:0.14285714 
1 1:0.6 2:0.5 3:0.38461538 4:0.2 
1 1:1 2:0.4 3:0.28571429 4:0.2 
1 1:1 2:0.4 3:0.5 4:0.2 
1 1:0.6 2:0.33333333 3:0.28571429 4:0.14285714 
1 1:0.77777778 2:0.4 3:0.38461538 4:0.15789474 
1 1:0.66666667 2:0.4 3:0.28571429 4:0.14285714 
1 1:0.6 2:0.33333333 3:0.30769231 4:0.090909091 
1 1:0.6 2:0.33333333 3:0.28571429 4:0.14285714 
1 1:0.45454545 2:1 3:0.38461538 4:0.14285714 
1 1:0.66666667 2:0.33333333 3:0.38461538 4:0.14285714 
1 1:0.6 2:0.4 3:0.38461538 4:0.15 
1 1:0.6 2:0.33333333 3:0.41666667 4:0.090909091 
1 1:0.6 2:0.33333333 3:0.30769231 4:0.095238095 
1 1:0.6 2:0.5 3:0.38461538 4:0.14285714 
1 1:0.6 2:0.5 3:0.38461538 4:0.090909091 
1 1:0.6 2:0.33333333 3:0.28571429 4:0.14285714 
1 1:0.6 2:1 3:0.28571429 4:0.14285714 
1 1:0.6 2:0.4 3:0.38461538 4:0.14285714 
1 1:0.6 2:0.4 3:0.28571429 4:0.14285714 
1 1:0.6 2:0.33333333 3:0.38461538 4:0.14285714 
1 1:0.45454545 2:0.4 3:0.28571429 4:0.1 
1 1:0.6 2:1 3:0.38461538 4:0.14285714 
1 1:0.45454545 2:0.33333333 3:0.41666667 4:0.14285714 
1 1:0.66666667 2:0.66666667 3:0.30769231 4:0.14285714 
1 1:0.6 2:0.28571429 3:0.30769231 4:0.095238095 
1 1:0.6 2:0.66666667 3:0.45454545 4:0.14285714 
1 1:0.6 2:0.33333333 3:0.41666667 4:0.090909091 
1 1:0.6 2:0.33333333 3:0.41666667 4:0.2 
1 1:0.6 2:0.42857143 3:0.41666667 4:0.2 
1 1:0.6 2:0.33333333 3:0.41666667 4:0.14285714 
1 1:0.6 2:0.5 3:0.30769231 4:0.14285714 
1 1:0.6 2:0.5 3:0.41666667 4:0.14285714 
1 1:0.77777778 2:0.42857143 3:0.30769231 4:0.090909091 
1 1:0.45454545 2:0.28571429 3:0.41666667 4:0.15789474 
1 1:0.6 2:0.33333333 3:0.41666667 4:0.14285714 
1 1:0.66666667 2:0.28571429 3:0.30769231 4:0.090909091 
1 1:0.45454545 2:0.33333333 3:0.38461538 4:0.14285714 
1 1:0.66666667 2:0.42857143 3:0.28571429 4:0.14285714 
1 1:0.6 2:0.5 3:0.28571429 4:0.15 
1 1:0.6 2:0.42857143 3:0.41666667 4:0.090909091 
1 1:0.6 2:1 3:0.41666667 4:0.15 
1 1:0.6 2:0.33333333 3:0.38461538 4:0.2 
1 1:0.6 2:0.33333333 3:0.38461538 4:0.090909091 
1 1:0.6 2:0.66666667 3:0.38461538 4:0.2 
1 1:0.6 2:0.33333333 3:0.38461538 4:0.14285714 
1 1:0.6 2:0.28571429 3:0.28571429 4:0.14285714 
1 1:0.6 2:0.5 3:0.38461538 4:0.14285714 
1 1:0.77777778 2:1 3:0.28571429 4:0.14285714 
1 1:0.45454545 2:0.5 3:0.38461538 4:0.15789474 
1 1:0.6 2:0.33333333 3:0.38461538 4:0.14285714 
1 1:0.66666667 2:0.5 3:0.28571429 4:0.14285714 
1 1:0.5 2:0.33333333 3:0.28571429 4:0.2 
1 1:0.45454545 2:0.4 3:0.28571429 4:0.15 
1 1:0.45454545 2:0.33333333 3:0.7 4:0.090909091 
1 1:0.45454545 2:0.33333333 3:0.41666667 4:0.15 
1 1:0.45454545 2:0.5 3:0.38461538 4:0.14285714 
1 1:0.45454545 2:1 3:0.38461538 4:0.2 
1 1:0.6 2:0.4 3:0.28571429 4:0.26315789 
1 1:0.45454545 2:0.33333333 3:0.28571429 4:0.14285714 
1 1:0.6 2:0.4 3:0.38461538 4:0.22222222 
1 1:0.6 2:1 3:0.8 4:0.26315789 
1 1:0.5 2:0.4 3:0.28571429 4:0.14285714 
1 1:0.66666667 2:0.28571429 3:0.63636364 4:0.21052632 
1 1:0.66666667 2:0.66666667 3:0.41666667 4:0.14285714 
1 1:0.66666667 2:0.42857143 3:0.30769231 4:0.15 
1 1:0.66666667 2:0.33333333 3:0.28571429 4:0.14285714 
1 1:0.66666667 2:0.33333333 3:0.38461538 4:0.14285714 
1 1:0.66666667 2:0.42857143 3:0.28571429 4:0.2 
1 1:0.66666667 2:0.33333333 3:0.28571429 4:0.2 
1 1:0.66666667 2:0.5 3:0.28571429 4:0.2 
1 1:0.66666667 2:0.42857143 3:0.38461538 4:0.14285714 
1 1:0.5 2:0.28571429 3:0.28571429 4:0.15789474 
1 1:0.66666667 2:0.33333333 3:0.28571429 4:0.2 
1 1:0.75 2:0.28571429 3:0.38461538 4:0.14285714 
1 1:0.6 2:0.28571429 3:0.41666667 4:0.15 
1 1:0.6 2:0.5 3:0.30769231 4:0.1 
1 1:0.6 2:0.4 3:0.28571429 4:0.15 
1 1:0.6 2:0.4 3:0.38461538 4:0.095238095 
1 1:0.6 2:0.5 3:0.28571429 4:0.15 
1 1:0.6 2:0.4 3:0.28571429 4:0.15 
1 1:0.6 2:0.33333333 3:0.38461538 4:0.21052632 
1 1:0.6 2:0.33333333 3:0.28571429 4:0.15 
1 1:0.6 2:0.5 3:0.38461538 4:0.21052632 
1 1:0.45454545 2:1 3:0.28571429 4:0.10526316 
1 1:0.6 2:0.4 3:0.28571429 4:0.15 
1 1:0.66666667 2:1 3:0.38461538 4:0.15 
1 1:0.6 2:0.42857143 3:0.45454545 4:0.15 
1 1:0.6 2:0.33333333 3:0.7 4:0.090909091 
1 1:0.6 2:0.33333333 3:0.41666667 4:0.14285714 
1 1:0.6 2:0.42857143 3:0.41666667 4:0.090909091 
1 1:0.77777778 2:0.33333333 3:0.41666667 4:0.090909091 
1 1:0.6 2:0.5 3:0.30769231 4:0.14285714 
1 1:0.6 2:0.5 3:0.41666667 4:0.090909091 
1 1:0.6 2:0.42857143 3:0.30769231 4:0.090909091 
1 1:0.45454545 2:0.28571429 3:0.41666667 4:0.047619048 
1 1:0.6 2:0.33333333 3:0.7 4:0.090909091 
1 1:0.66666667 2:0.28571429 3:0.30769231 4:0.090909091 
1 1:0.6 2:0.33333333 3:0.41666667 4:0.15 
1 1:0.6 2:0.66666667 3:0.41666667 4:0.15 
1 1:0.6 2:0.33333333 3:0.41666667 4:0.15 
1 1:0.6 2:0.28571429 3:0.30769231 4:0.15 
1 1:0.6 2:0.5 3:0.41666667 4:0.15 
1 1:0.6 2:1 3:0.30769231 4:0.095238095 
1 1:0.45454545 2:0.5 3:0.41666667 4:0.10526316 
1 1:0.6 2:0.33333333 3:0.41666667 4:0.21052632 
1 1:0.66666667 2:0.5 3:0.30769231 4:0.095238095 
1 1:0.6 2:1 3:0.38461538 4:0.090909091 
1 1:0.77777778 2:0.33333333 3:0.38461538 4:0.2 
1 1:1 2:0.4 3:0.28571429 4:0.2 
1 1:1 2:0.4 3:0.38461538 4:0.2 
1 1:0.6 2:0.33333333 3:0.28571429 4:0.14285714 
1 1:0.77777778 2:0.4 3:0.38461538 4:0.15789474 
1 1:0.66666667 2:0.4 3:0.28571429 4:0.14285714 
1 1:0.6 2:0.33333333 3:0.38461538 4:0.14285714 
1 1:0.6 2:0.5 3:0.38461538 4:0.14285714 
1 1:0.6 2:0.4 3:0.38461538 4:0.14285714 
1 1:0.6 2:0.4 3:0.38461538 4:0.14285714 
1 1:0.6 2:0.33333333 3:0.38461538 4:0.090909091 
1 1:0.45454545 2:0.4 3:0.38461538 4:0.1 
1 1:0.6 2:0.5 3:0.38461538 4:0.2 
1 1:0.66666667 2:0.4 3:0.38461538 4:0.090909091 
1 1:0.6 2:0.33333333 3:0.38461538 4:0.2 
1 1:0.77777778 2:0.28571429 3:0.28571429 4:0.26315789 
1 1:0.6 2:0.66666667 3:0.28571429 4:0.14285714 
1 1:0.66666667 2:0.5 3:0.28571429 4:0.14285714 
1 1:0.6 2:0.4 3:0.28571429 4:0.2 
1 1:0.6 2:0.4 3:0.38461538 4:0.2 
1 1:0.6 2:0.33333333 3:0.28571429 4:0.14285714 
1 1:0.45454545 2:0.4 3:0.38461538 4:0.15789474 
1 1:0.6 2:1 3:0.38461538 4:0.2 
1 1:0.66666667 2:0.4 3:0.28571429 4:0.14285714 
1 1:1 2:0.33333333 3:0.28571429 4:0.26315789 
1 1:0.6 2:0.28571429 3:0.38461538 4:0.14285714 
1 1:0.77777778 2:0.33333333 3:0.28571429 4:0.22222222 
1 1:1 2:0.4 3:0.28571429 4:0.26315789 
1 1:0.66666667 2:0.33333333 3:0.38461538 4:0.14285714 
1 1:0.6 2:0.5 3:0.28571429 4:0.14285714 
1 1:0.77777778 2:0.33333333 3:0.38461538 4:0.22222222 
1 1:0.66666667 2:0.33333333 3:0.28571429 4:0.14285714 
1 1:0.45454545 2:0.5 3:0.28571429 4:0.1 
1 1:0.6 2:0.33333333 3:0.28571429 4:0.14285714 
1 1:0.66666667 2:0.5 3:0.38461538 4:0.14285714 
1 1:0.77777778 2:0.4 3:0.38461538 4:0.22222222 
1 1:0.5 2:1 3:0.28571429 4:0.1 
1 1:0.66666667 2:0.4 3:0.28571429 4:0.14285714 
1 1:0.6 2:0.42857143 3:0.38461538 4:0.16666667 
1 1:0.36363636 2:1 3:0.45454545 4:0.1 
1 1:0.36363636 2:0.4 3:0.6 4:0.1 
1 1:1 2:1 3:1 4:1 
1 1:1 2:1 3:1 4:1 
1 1:1 2:1 3:1 4:1 
1 1:1 2:1 3:1 4:1 
1 1:1 2:1 3:1 4:1 
1 1:1 2:1 3:1 4:1 
1 1:1 2:1 3:1 4:1 
1 1:1 2:1 3:1 4:1 
1 1:1 2:1 3:1 4:1 
1 1:1 2:1 3:1 4:1 
1 1:1 2:1 3:1 4:1 
1 1:1 2:1 3:1 4:1 
1 1:1 2:1 3:1 4:1 
1 1:1 2:1 3:1 4:1 
1 1:1 2:1 3:1 4:1 
1 1:1 2:1 3:1 4:1 
1 1:1 2:1 3:1 4:1 
1 1:1 2:1 3:1 4:1 
1 1:1 2:1 3:1 4:1 
1 1:1 2:1 3:1 4:1 
1 1:1 2:1 3:1 4:1 
1 1:0.5 2:0.4 3:0.63636364 4:0.17647059 
1 1:1 2:1 3:1 4:1 
1 1:1 2:1 3:1 4:1 
1 1:1 2:1 3:1 4:1 
1 1:1 2:1 3:1 4:1 
1 1:1 2:1 3:1 4:1 
1 1:1 2:1 3:1 4:1 
1 1:1 2:1 3:1 4:1 
1 1:1 2:1 3:1 4:1 
1 1:1 2:1 3:1 4:1 
1 1:1 2:1 3:1 4:1 
1 1:1 2:1 3:1 4:1 
1 1:1 2:1 3:1 4:1 
1 1:1 2:1 3:1 4:1 
1 1:1 2:1 3:1 4:1 
1 1:1 2:1 3:1 4:1 
1 1:1 2:1 3:1 4:1 
1 1:1 2:1 3:1 4:1 
1 1:1 2:1 3:1 4:1 
1 1:1 2:1 3:1 4:1 
1 1:1 2:1 3:1 4:1 
1 1:1 2:1 3:1 4:1 
1 1:1 2:1 3:1 4:1 
1 1:1 2:1 3:1 4:1 
1 1:1 2:1 3:1 4:1 
1 1:1 2:1 3:1 4:1 
1 1:1 2:1 3:1 4:1 
1 1:1 2:1 3:1 4:1 
1 1:1 2:1 3:1 4:1 
1 1:1 2:1 3:1 4:1 
1 1:1 2:1 3:1 4:1 
1 1:1 2:1 3:1 4:1 
1 1:1 2:1 3:1 4:1 
1 1:1 2:1 3:1 4:1 
1 1:1 2:1 3:1 4:1 
1 1:1 2:1 3:1 4:1 
1 1:1 2:1 3:1 4:1 
1 1:1 2:1 3:1 4:1 
1 1:1 2:1 3:1 4:1 
1 1:1 2:1 3:1 4:1 
1 1:1 2:1 3:1 4:1 
1 1:1 2:1 3:1 4:1 
1 1:1 2:1 3:1 4:1 
1 1:1 2:1 3:1 4:1 
1 1:1 2:1 3:1 4:1 
1 1:1 2:1 3:1 4:1 
1 1:1 2:1 3:1 4:1 
1 1:1 2:1 3:1 4:1 
1 1:1 2:1 3:1 4:1 
1 1:1 2:1 3:1 4:1 
1 1:1 2:1 3:1 4:1 
1 1:1 2:1 3:1 4:1 
1 1:1 2:1 3:1 4:1 
1 1:1 2:1 3:1 4:1 
1 1:1 2:1 3:1 4:1 
1 1:1 2:1 3:1 4:1 
1 1:1 2:1 3:1 4:1 
1 1:1 2:1 3:1 4:1 
1 1:1 2:1 3:1 4:1 
1 1:0.5 2:0.4 3:0.63636364 4:0.17647059 
1 1:1 2:1 3:1 4:1 
1 1:1 2:1 3:1 4:1 
1 1:1 2:1 3:1 4:1 
1 1:1 2:1 3:1 4:1 
1 1:1 2:1 3:1 4:1 
1 1:1 2:1 3:1 4:1 
1 1:1 2:1 3:1 4:1 
1 1:1 2:1 3:1 4:1 
1 1:1 2:1 3:1 4:1 
1 1:1 2:1 3:1 4:1 
1 1:1 2:1 3:1 4:1 
1 1:1 2:1 3:1 4:1 
1 1:1 2:1 3:1 4:1 
1 1:1 2:1 3:1 4:1 
1 1:1 2:1 3:1 4:1 
1 1:1 2:1 3:1 4:1 
1 1:1 2:1 3:1 4:1 
1 1:1 2:1 3:1 4:1 
1 1:1 2:1 3:1 4:1 
1 1:1 2:1 3:1 4:1 
1 1:1 2:1 3:1 4:1 
1 1:1 2:1 3:1 4:1 
1 1:1 2:1 3:1 4:1 
1 1:1 2:1 3:1 4:1 
1 1:1 2:1 3:1 4:1 
1 1:1 2:1 3:1 4:1 
1 1:1 2:1 3:1 4:1 
1 1:1 2:1 3:1 4:1 
1 1:1 2:1 3:1 4:1 
1 1:1 2:1 3:1 4:1 
1 1:1 2:1 3:1 4:1 
1 1:1 2:1 3:1 4:1 
1 1:1 2:1 3:1 4:1 
1 1:1 2:1 3:1 4:1 
1 1:1 2:1 3:1 4:1 
1 1:1 2:1 3:1 4:1 
1 1:1 2:1 3:1 4:1 
1 1:1 2:1 3:1 4:1 
1 1:1 2:1 3:1 4:1 
1 1:1 2:1 3:1 4:1 
1 1:1 2:1 3:1 4:1 
1 1:1 2:1 3:1 4:1 
1 1:1 2:1 3:1 4:1 
1 1:1 2:1 3:1 4:1 
1 1:1 2:1 3:1 4:1 
1 1:1 2:1 3:1 4:1 
1 1:1 2:1 3:1 4:1 
1 1:1 2:1 3:1 4:1 
1 1:1 2:1 3:1 4:1 
1 1:1 2:1 3:1 4:1 
1 1:1 2:1 3:1 4:1 
1 1:1 2:1 3:1 4:1 
1 1:1 2:1 3:1 4:1 
1 1:1 2:1 3:1 4:1 
1 1:1 2:1 3:1 4:1 
1 1:1 2:1 3:1 4:1 
1 1:1 2:1 3:1 4:1 
1 1:0.5 2:0.4 3:0.63636364 4:0.17647059 
1 1:1 2:1 3:1 4:1 
1 1:1 2:1 3:1 4:1 
1 1:1 2:1 3:1 4:1 
1 1:1 2:1 3:1 4:1 
1 1:1 2:1 3:1 4:1 
1 1:1 2:1 3:1 4:1 
1 1:1 2:1 3:1 4:1 
1 1:1 2:1 3:1 4:1 
1 1:1 2:1 3:1 4:1 
1 1:1 2:1 3:1 4:1 
1 1:1 2:1 3:1 4:1 
1 1:1 2:1 3:1 4:1 
1 1:1 2:1 3:1 4:1 
1 1:1 2:1 3:1 4:1 
1 1:1 2:1 3:1 4:1 
1 1:1 2:1 3:1 4:1 
1 1:1 2:1 3:1 4:1 
1 1:1 2:1 3:1 4:1 
1 1:1 2:1 3:1 4:1 
1 1:1 2:1 3:1 4:1 
1 1:1 2:1 3:1 4:1 
1 1:1 2:1 3:1 4:1 
1 1:1 2:1 3:1 4:1 
1 1:1 2:1 3:1 4:1 
1 1:1 2:1 3:1 4:1 
1 1:1 2:1 3:1 4:1 
1 1:1 2:1 3:1 4:1 
1 1:1 2:1 3:1 4:1 
1 1:1 2:1 3:1 4:1 
1 1:1 2:1 3:1 4:1 
1 1:1 2:1 3:1 4:1 
1 1:1 2:1 3:1 4:1 
1 1:1 2:1 3:1 4:1 
1 1:1 2:1 3:1 4:1 
1 1:1 2:1 3:1 4:1 
1 1:1 2:1 3:1 4:1 
1 1:1 2:1 3:1 4:1 
1 1:1 2:1 3:1 4:1 
1 1:1 2:1 3:1 4:1 
1 1:1 2:1 3:1 4:1 
1 1:1 2:1 3:1 4:1 
1 1:1 2:1 3:1 4:1 
1 1:1 2:1 3:1 4:1 
1 1:1 2:1 3:1 4:1 
1 1:1 2:1 3:1 4:1 
1 1:1 2:1 3:1 4:1 
1 1:1 2:1 3:1 4:1 
1 1:1 2:1 3:1 4:1 
1 1:1 2:1 3:1 4:1 
1 1:1 2:1 3:1 4:1 
1 1:1 2:1 3:1 4:1 
1 1:1 2:1 3:1 4:1 
1 1:1 2:1 3:1 4:1 
1 1:1 2:1 3:1 4:1 
1 1:1 2:1 3:1 4:1 
1 1:1 2:1 3:1 4:1 
1 1:0.5 2:0.4 3:0.63636364 4:0.17647059 
1 1:1 2:1 3:1 4:1 
1 1:1 2:1 3:1 4:1 
1 1:1 2:1 3:1 4:1 
1 1:1 2:1 3:1 4:1 
1 1:1 2:1 3:1 4:1 
1 1:1 2:1 3:1 4:1 
1 1:1 2:1 3:1 4:1 
1 1:1 2:1 3:1 4:1 
1 1:1 2:1 3:1 4:1 
1 1:1 2:1 3:1 4:1 
1 1:1 2:1 3:1 4:1 
1 1:1 2:1 3:1 4:1 
1 1:1 2:1 3:1 4:1 
1 1:1 2:1 3:1 4:1 
1 1:1 2:1 3:1 4:1 
1 1:1 2:1 3:1 4:1 
1 1:1 2:1 3:1 4:1 
1 1:1 2:1 3:1 4:1 
1 1:1 2:1 3:1 4:1 
1 1:1 2:1 3:1 4:1 
1 1:1 2:1 3:1 4:1 
1 1:1 2:1 3:1 4:1 
1 1:1 2:1 3:1 4:1 
1 1:1 2:1 3:1 4:1 
1 1:1 2:1 3:1 4:1 
1 1:1 2:1 3:1 4:1 
1 1:1 2:1 3:1 4:1 
1 1:1 2:1 3:1 4:1 
1 1:1 2:1 3:1 4:1 
1 1:1 2:1 3:1 4:1 
1 1:1 2:1 3:1 4:1 
1 1:1 2:1 3:1 4:1 
1 1:1 2:1 3:1 4:1 
1 1:1 2:1 3:1 4:1 
1 1:1 2:1 3:1 4:1 
1 1:1 2:1 3:1 4:1 
1 1:1 2:1 3:1 4:1 
1 1:1 2:1 3:1 4:1 
1 1:1 2:1 3:1 4:1 
1 1:1 2:1 3:1 4:1 
1 1:1 2:1 3:1 4:1 
1 1:1 2:1 3:1 4:1 
1 1:1 2:1 3:1 4:1 
1 1:1 2:1 3:1 4:1 
1 1:1 2:1 3:1 4:1 
1 1:1 2:1 3:1 4:1 
1 1:1 2:1 3:1 4:1 
1 1:1 2:1 3:1 4:1 
1 1:1 2:1 3:1 4:1 
1 1:1 2:1 3:1 4:1 
1 1:1 2:1 3:1 4:1 
1 1:1 2:1 3:1 4:1 
1 1:1 2:1 3:1 4:1 
1 1:1 2:1 3:1 4:1 
1 1:1 2:1 3:1 4:1 
1 1:0.5 2:0.4 3:0.63636364 4:0.17647059 
1 1:1 2:1 3:1 4:1 
1 1:1 2:1 3:1 4:1 
1 1:1 2:1 3:1 4:1 
1 1:1 2:1 3:1 4:1 
1 1:1 2:1 3:1 4:1 
1 1:1 2:1 3:1 4:1 
1 1:1 2:1 3:1 4:1 
1 1:1 2:1 3:1 4:1 
1 1:1 2:1 3:1 4:1 
1 1:1 2:1 3:1 4:1 
1 1:1 2:1 3:1 4:1 
1 1:1 2:1 3:1 4:1 
1 1:1 2:1 3:1 4:1 
1 1:1 2:1 3:1 4:1 
1 1:1 2:1 3:1 4:1 
1 1:1 2:1 3:1 4:1 
1 1:1 2:1 3:1 4:1 
1 1:1 2:1 3:1 4:1 
1 1:1 2:1 3:1 4:1 
1 1:1 2:1 3:1 4:1 
1 1:1 2:1 3:1 4:1 
1 1:1 2:1 3:1 4:1 
1 1:1 2:1 3:1 4:1 
1 1:1 2:1 3:1 4:1 
1 1:1 2:1 3:1 4:1 
1 1:1 2:1 3:1 4:1 
1 1:1 2:1 3:1 4:1 
1 1:1 2:1 3:1 4:1 
1 1:1 2:1 3:1 4:1 
1 1:1 2:1 3:1 4:1 
1 1:1 2:1 3:1 4:1 
1 1:1 2:1 3:1 4:1 
1 1:1 2:1 3:1 4:1 
1 1:1 2:1 3:1 4:1 
1 1:1 2:1 3:1 4:1 
1 1:1 2:1 3:1 4:1 
1 1:1 2:1 3:1 4:1 
1 1:1 2:1 3:1 4:1 
1 1:1 2:1 3:1 4:1 
1 1:1 2:1 3:1 4:1 
1 1:1 2:1 3:1 4:1 
1 1:1 2:1 3:1 4:1 
1 1:1 2:1 3:1 4:1 
1 1:1 2:1 3:1 4:1 
1 1:1 2:1 3:1 4:1 
1 1:1 2:1 3:1 4:1 
1 1:1 2:1 3:1 4:1 
1 1:1 2:1 3:1 4:1 
1 1:1 2:1 3:1 4:1 
1 1:1 2:1 3:1 4:1 
1 1:1 2:1 3:1 4:1 
1 1:1 2:1 3:1 4:1 
1 1:1 2:1 3:1 4:1 
1 1:1 2:1 3:1 4:1 
1 1:0.5 2:0.4 3:0.63636364 4:0.17647059 
1 1:1 2:1 3:1 4:1 
1 1:1 2:1 3:1 4:1 
1 1:1 2:1 3:1 4:1 
1 1:1 2:1 3:1 4:1 
1 1:1 2:1 3:1 4:1 
1 1:1 2:1 3:1 4:1 
1 1:1 2:1 3:1 4:1 
1 1:1 2:1 3:1 4:1 
1 1:1 2:1 3:1 4:1 
1 1:1 2:1 3:1 4:1 
1 1:1 2:1 3:1 4:1 
1 1:1 2:1 3:1 4:1 
1 1:1 2:1 3:1 4:1 
1 1:1 2:1 3:1 4:1 
1 1:1 2:1 3:1 4:1 
1 1:1 2:1 3:1 4:1 
1 1:1 2:1 3:1 4:1 
1 1:1 2:1 3:1 4:1 
1 1:1 2:1 3:1 4:1 
1 1:1 2:1 3:1 4:1 
1 1:1 2:1 3:1 4:1 
1 1:1 2:1 3:1 4:1 
1 1:1 2:1 3:1 4:1 
1 1:1 2:1 3:1 4:1 
1 1:1 2:1 3:1 4:1 
1 1:1 2:1 3:1 4:1 
1 1:1 2:1 3:1 4:1 
1 1:1 2:1 3:1 4:1 
1 1:1 2:1 3:1 4:1 
1 1:1 2:1 3:1 4:1 
1 1:1 2:1 3:1 4:1 
1 1:1 2:1 3:1 4:1 
1 1:1 2:1 3:1 4:1 
1 1:1 2:1 3:1 4:1 
1 1:1 2:1 3:1 4:1 
1 1:1 2:1 3:1 4:1 
1 1:1 2:1 3:1 4:1 
1 1:1 2:1 3:1 4:1 
1 1:1 2:1 3:1 4:1 
1 1:1 2:1 3:1 4:1 
1 1:1 2:1 3:1 4:1 
1 1:1 2:1 3:1 4:1 
1 1:1 2:1 3:1 4:1 
1 1:1 2:1 3:1 4:1 
1 1:1 2:1 3:1 4:1 
1 1:1 2:1 3:1 4:1 
1 1:1 2:1 3:1 4:1 
1 1:1 2:1 3:1 4:1 
1 1:1 2:1 3:1 4:1 
1 1:1 2:1 3:1 4:1 
1 1:1 2:1 3:1 4:1 
1 1:1 2:1 3:1 4:1 
1 1:1 2:1 3:1 4:1 
1 1:0.5 2:0.4 3:0.63636364 4:0.17647059 
1 1:1 2:1 3:1 4:1 
1 1:1 2:1 3:1 4:1 
1 1:1 2:1 3:1 4:1 
1 1:1 2:1 3:1 4:1 
1 1:1 2:1 3:1 4:1 
1 1:1 2:1 3:1 4:1 
1 1:1 2:1 3:1 4:1 
1 1:1 2:1 3:1 4:1 
1 1:1 2:1 3:1 4:1 
1 1:1 2:1 3:1 4:1 
1 1:1 2:1 3:1 4:1 
1 1:1 2:1 3:1 4:1 
1 1:1 2:1 3:1 4:1 
1 1:1 2:1 3:1 4:1 
1 1:1 2:1 3:1 4:1 
1 1:1 2:1 3:1 4:1 
1 1:1 2:1 3:1 4:1 
1 1:1 2:1 3:1 4:1 
1 1:1 2:1 3:1 4:1 
1 1:1 2:1 3:1 4:1 
1 1:1 2:1 3:1 4:1 
1 1:1 2:1 3:1 4:1 
1 1:1 2:1 3:1 4:1 
1 1:1 2:1 3:1 4:1 
1 1:1 2:1 3:1 4:1 
1 1:1 2:1 3:1 4:1 
1 1:1 2:1 3:1 4:1 
1 1:1 2:1 3:1 4:1 
1 1:1 2:1 3:1 4:1 
1 1:1 2:1 3:1 4:1 
1 1:1 2:1 3:1 4:1 
1 1:1 2:1 3:1 4:1 
1 1:1 2:1 3:1 4:1 
1 1:1 2:1 3:1 4:1 
1 1:1 2:1 3:1 4:1 
1 1:1 2:1 3:1 4:1 
1 1:1 2:1 3:1 4:1 
1 1:1 2:1 3:1 4:1 
1 1:1 2:1 3:1 4:1 
1 1:1 2:1 3:1 4:1 
1 1:1 2:1 3:1 4:1 
1 1:1 2:1 3:1 4:1 
1 1:1 2:1 3:1 4:1 
1 1:1 2:1 3:1 4:1 
1 1:1 2:1 3:1 4:1 
1 1:1 2:1 3:1 4:1 
1 1:1 2:1 3:1 4:1 
1 1:1 2:1 3:1 4:1 
1 1:1 2:1 3:1 4:1 
1 1:1 2:1 3:1 4:1 
1 1:1 2:1 3:1 4:1 
1 1:1 2:1 3:1 4:1 
1 1:0.5 2:0.4 3:0.63636364 4:0.17647059 
1 1:1 2:1 3:1 4:1 
1 1:1 2:1 3:1 4:1 
1 1:1 2:1 3:1 4:1 
1 1:1 2:1 3:1 4:1 
1 1:1 2:1 3:1 4:1 
1 1:1 2:1 3:1 4:1 
1 1:1 2:1 3:1 4:1 
1 1:1 2:1 3:1 4:1 
1 1:1 2:1 3:1 4:1 
1 1:1 2:1 3:1 4:1 
1 1:1 2:1 3:1 4:1 
1 1:1 2:1 3:1 4:1 
1 1:1 2:1 3:1 4:1 
1 1:1 2:1 3:1 4:1 
1 1:1 2:1 3:1 4:1 
1 1:1 2:1 3:1 4:1 
1 1:1 2:1 3:1 4:1 
1 1:1 2:1 3:1 4:1 
1 1:1 2:1 3:1 4:1 
1 1:1 2:1 3:1 4:1 
1 1:1 2:1 3:1 4:1 
1 1:1 2:1 3:1 4:1 
1 1:1 2:1 3:1 4:1 
1 1:1 2:1 3:1 4:1 
1 1:1 2:1 3:1 4:1 
1 1:1 2:1 3:1 4:1 
1 1:1 2:1 3:1 4:1 
1 1:1 2:1 3:1 4:1 
1 1:1 2:1 3:1 4:1 
1 1:1 2:1 3:1 4:1 
1 1:1 2:1 3:1 4:1 
1 1:1 2:1 3:1 4:1 
1 1:1 2:1 3:1 4:1 
1 1:1 2:1 3:1 4:1 
1 1:1 2:1 3:1 4:1 
1 1:1 2:1 3:1 4:1 
1 1:1 2:1 3:1 4:1 
1 1:1 2:1 3:1 4:1 
1 1:1 2:1 3:1 4:1 
1 1:1 2:1 3:1 4:1 
1 1:1 2:1 3:1 4:1 
1 1:1 2:1 3:1 4:1 
1 1:1 2:1 3:1 4:1 
1 1:1 2:1 3:1 4:1 
1 1:1 2:1 3:1 4:1 
1 1:1 2:1 3:1 4:1 
1 1:1 2:1 3:1 4:1 
1 1:1 2:1 3:1 4:1 
1 1:1 2:1 3:1 4:1 
1 1:1 2:1 3:1 4:1 
1 1:1 2:1 3:1 4:1 
1 1:0.5 2:0.4 3:0.63636364 4:0.17647059 
1 1:1 2:1 3:1 4:1 
1 1:1 2:1 3:1 4:1 
1 1:1 2:1 3:1 4:1 
1 1:1 2:1 3:1 4:1 
1 1:1 2:1 3:1 4:1 
1 1:1 2:1 3:1 4:1 
1 1:1 2:1 3:1 4:1 
1 1:1 2:1 3:1 4:1 
1 1:1 2:1 3:1 4:1 
1 1:1 2:1 3:1 4:1 
1 1:1 2:1 3:1 4:1 
1 1:1 2:1 3:1 4:1 
1 1:1 2:1 3:1 4:1 
1 1:1 2:1 3:1 4:1 
1 1:1 2:1 3:1 4:1 
1 1:1 2:1 3:1 4:1 
1 1:1 2:1 3:1 4:1 
1 1:1 2:1 3:1 4:1 
1 1:1 2:1 3:1 4:1 
1 1:1 2:1 3:1 4:1 
1 1:1 2:1 3:1 4:1 
1 1:1 2:1 3:1 4:1 
1 1:1 2:1 3:1 4:1 
1 1:1 2:1 3:1 4:1 
1 1:1 2:1 3:1 4:1 
1 1:1 2:1 3:1 4:1 
1 1:1 2:1 3:1 4:1 
1 1:1 2:1 3:1 4:1 
1 1:1 2:1 3:1 4:1 
1 1:1 2:1 3:1 4:1 
1 1:1 2:1 3:1 4:1 
1 1:1 2:1 3:1 4:1 
1 1:1 2:1 3:1 4:1 
1 1:1 2:1 3:1 4:1 
1 1:1 2:1 3:1 4:1 
1 1:1 2:1 3:1 4:1 
1 1:1 2:1 3:1 4:1 
1 1:1 2:1 3:1 4:1 
1 1:1 2:1 3:1 4:1 
1 1:1 2:1 3:1 4:1 
1 1:1 2:1 3:1 4:1 
1 1:1 2:1 3:1 4:1 
1 1:1 2:1 3:1 4:1 
1 1:1 2:1 3:1 4:1 
1 1:1 2:1 3:1 4:1 
1 1:1 2:1 3:1 4:1 
1 1:1 2:1 3:1 4:1 
1 1:1 2:1 3:1 4:1 
1 1:1 2:1 3:1 4:1 
1 1:1 2:1 3:1 4:1 
1 1:0.5 2:0.4 3:0.63636364 4:0.17647059 
1 1:1 2:1 3:1 4:1 
1 1:1 2:1 3:1 4:1 
1 1:1 2:1 3:1 4:1 
1 1:1 2:1 3:1 4:1 
1 1:1 2:1 3:1 4:1 
1 1:1 2:1 3:1 4:1 
1 1:1 2:1 3:1 4:1 
1 1:1 2:1 3:1 4:1 
1 1:1 2:1 3:1 4:1 
1 1:1 2:1 3:1 4:1 
1 1:1 2:1 3:1 4:1 
1 1:1 2:1 3:1 4:1 
1 1:1 2:1 3:1 4:1 
1 1:1 2:1 3:1 4:1 
1 1:1 2:1 3:1 4:1 
1 1:1 2:1 3:1 4:1 
1 1:1 2:1 3:1 4:1 
1 1:1 2:1 3:1 4:1 
1 1:1 2:1 3:1 4:1 
1 1:1 2:1 3:1 4:1 
1 1:1 2:1 3:1 4:1 
1 1:1 2:1 3:1 4:1 
1 1:1 2:1 3:1 4:1 
1 1:1 2:1 3:1 4:1 
1 1:1 2:1 3:1 4:1 
1 1:1 2:1 3:1 4:1 
1 1:1 2:1 3:1 4:1 
1 1:1 2:1 3:1 4:1 
1 1:1 2:1 3:1 4:1 
1 1:1 2:1 3:1 4:1 
1 1:1 2:1 3:1 4:1 
1 1:1 2:1 3:1 4:1 
1 1:1 2:1 3:1 4:1 
1 1:1 2:1 3:1 4:1 
1 1:1 2:1 3:1 4:1 
1 1:1 2:1 3:1 4:1 
1 1:1 2:1 3:1 4:1 
1 1:1 2:1 3:1 4:1 
1 1:1 2:1 3:1 4:1 
1 1:1 2:1 3:1 4:1 
1 1:1 2:1 3:1 4:1 
1 1:1 2:1 3:1 4:1 
1 1:1 2:1 3:1 4:1 
1 1:1 2:1 3:1 4:1 
1 1:1 2:1 3:1 4:1 
1 1:1 2:1 3:1 4:1 
1 1:1 2:1 3:1 4:1 
1 1:1 2:1 3:1 4:1 
1 1:1 2:1 3:1 4:1 
1 1:0.5 2:0.4 3:0.63636364 4:0.17647059 
1 1:1 2:1 3:1 4:1 
1 1:1 2:1 3:1 4:1 
1 1:1 2:1 3:1 4:1 
1 1:1 2:1 3:1 4:1 
1 1:1 2:1 3:1 4:1 
1 1:1 2:1 3:1 4:1 
1 1:1 2:1 3:1 4:1 
1 1:1 2:1 3:1 4:1 
1 1:1 2:1 3:1 4:1 
1 1:1 2:1 3:1 4:1 
1 1:1 2:1 3:1 4:1 
1 1:1 2:1 3:1 4:1 
1 1:1 2:1 3:1 4:1 
1 1:1 2:1 3:1 4:1 
1 1:1 2:1 3:1 4:1 
1 1:1 2:1 3:1 4:1 
1 1:1 2:1 3:1 4:1 
1 1:1 2:1 3:1 4:1 
1 1:1 2:1 3:1 4:1 
1 1:1 2:1 3:1 4:1 
1 1:1 2:1 3:1 4:1 
1 1:1 2:1 3:1 4:1 
1 1:1 2:1 3:1 4:1 
1 1:1 2:1 3:1 4:1 
1 1:1 2:1 3:1 4:1 
1 1:1 2:1 3:1 4:1 
1 1:1 2:1 3:1 4:1 
1 1:1 2:1 3:1 4:1 
1 1:1 2:1 3:1 4:1 
1 1:1 2:1 3:1 4:1 
1 1:1 2:1 3:1 4:1 
1 1:1 2:1 3:1 4:1 
1 1:1 2:1 3:1 4:1 
1 1:1 2:1 3:1 4:1 
1 1:1 2:1 3:1 4:1 
1 1:1 2:1 3:1 4:1 
1 1:1 2:1 3:1 4:1 
1 1:1 2:1 3:1 4:1 
1 1:1 2:1 3:1 4:1 
1 1:1 2:1 3:1 4:1 
1 1:1 2:1 3:1 4:1 
1 1:1 2:1 3:1 4:1 
1 1:1 2:1 3:1 4:1 
1 1:1 2:1 3:1 4:1 
1 1:1 2:1 3:1 4:1 
1 1:1 2:1 3:1 4:1 
1 1:1 2:1 3:1 4:1 
1 1:1 2:1 3:1 4:1 
1 1:0.5 2:0.4 3:0.63636364 4:0.17647059 
1 1:1 2:1 3:1 4:1 
1 1:1 2:1 3:1 4:1 
1 1:1 2:1 3:1 4:1 
1 1:1 2:1 3:1 4:1 
1 1:1 2:1 3:1 4:1 
1 1:1 2:1 3:1 4:1 
1 1:1 2:1 3:1 4:1 
1 1:1 2:1 3:1 4:1 
1 1:1 2:1 3:1 4:1 
1 1:1 2:1 3:1 4:1 
1 1:1 2:1 3:1 4:1 
1 1:1 2:1 3:1 4:1 
1 1:1 2:1 3:1 4:1 
1 1:1 2:1 3:1 4:1 
1 1:1 2:1 3:1 4:1 
1 1:1 2:1 3:1 4:1 
1 1:1 2:1 3:1 4:1 
1 1:1 2:1 3:1 4:1 
1 1:1 2:1 3:1 4:1 
1 1:1 2:1 3:1 4:1 
1 1:1 2:1 3:1 4:1 
1 1:1 2:1 3:1 4:1 
1 1:1 2:1 3:1 4:1 
1 1:1 2:1 3:1 4:1 
1 1:1 2:1 3:1 4:1 
1 1:1 2:1 3:1 4:1 
1 1:1 2:1 3:1 4:1 
1 1:1 2:1 3:1 4:1 
1 1:1 2:1 3:1 4:1 
1 1:1 2:1 3:1 4:1 
1 1:1 2:1 3:1 4:1 
1 1:1 2:1 3:1 4:1 
1 1:1 2:1 3:1 4:1 
1 1:1 2:1 3:1 4:1 
1 1:1 2:1 3:1 4:1 
1 1:1 2:1 3:1 4:1 
1 1:1 2:1 3:1 4:1 
1 1:1 2:1 3:1 4:1 
1 1:1 2:1 3:1 4:1 
1 1:1 2:1 3:1 4:1 
1 1:1 2:1 3:1 4:1 
1 1:1 2:1 3:1 4:1 
1 1:1 2:1 3:1 4:1 
1 1:1 2:1 3:1 4:1 
1 1:1 2:1 3:1 4:1 
1 1:1 2:1 3:1 4:1 
1 1:1 2:1 3:1 4:1 
1 1:0.5 2:0.4 3:0.63636364 4:0.17647059 
1 1:1 2:1 3:1 4:1 
1 1:1 2:1 3:1 4:1 
1 1:1 2:1 3:1 4:1 
1 1:1 2:1 3:1 4:1 
1 1:1 2:1 3:1 4:1 
1 1:1 2:1 3:1 4:1 
1 1:1 2:1 3:1 4:1 
1 1:1 2:1 3:1 4:1 
1 1:1 2:1 3:1 4:1 
1 1:1 2:1 3:1 4:1 
1 1:1 2:1 3:1 4:1 
1 1:1 2:1 3:1 4:1 
1 1:1 2:1 3:1 4:1 
1 1:1 2:1 3:1 4:1 
1 1:1 2:1 3:1 4:1 
1 1:1 2:1 3:1 4:1 
1 1:1 2:1 3:1 4:1 
1 1:1 2:1 3:1 4:1 
1 1:1 2:1 3:1 4:1 
1 1:1 2:1 3:1 4:1 
1 1:1 2:1 3:1 4:1 
1 1:1 2:1 3:1 4:1 
1 1:1 2:1 3:1 4:1 
1 1:1 2:1 3:1 4:1 
1 1:1 2:1 3:1 4:1 
1 1:1 2:1 3:1 4:1 
1 1:1 2:1 3:1 4:1 
1 1:1 2:1 3:1 4:1 
1 1:1 2:1 3:1 4:1 
1 1:1 2:1 3:1 4:1 
1 1:1 2:1 3:1 4:1 
1 1:1 2:1 3:1 4:1 
1 1:1 2:1 3:1 4:1 
1 1:1 2:1 3:1 4:1 
1 1:1 2:1 3:1 4:1 
1 1:1 2:1 3:1 4:1 
1 1:1 2:1 3:1 4:1 
1 1:1 2:1 3:1 4:1 
1 1:1 2:1 3:1 4:1 
1 1:1 2:1 3:1 4:1 
1 1:1 2:1 3:1 4:1 
1 1:1 2:1 3:1 4:1 
1 1:1 2:1 3:1 4:1 
1 1:1 2:1 3:1 4:1 
1 1:1 2:1 3:1 4:1 
1 1:1 2:1 3:1 4:1 
1 1:0.5 2:0.4 3:0.63636364 4:0.17647059 
1 1:1 2:1 3:1 4:1 
1 1:1 2:1 3:1 4:1 
1 1:1 2:1 3:1 4:1 
1 1:1 2:1 3:1 4:1 
1 1:1 2:1 3:1 4:1 
1 1:1 2:1 3:1 4:1 
1 1:1 2:1 3:1 4:1 
1 1:1 2:1 3:1 4:1 
1 1:1 2:1 3:1 4:1 
1 1:1 2:1 3:1 4:1 
1 1:1 2:1 3:1 4:1 
1 1:1 2:1 3:1 4:1 
1 1:1 2:1 3:1 4:1 
1 1:1 2:1 3:1 4:1 
1 1:1 2:1 3:1 4:1 
1 1:1 2:1 3:1 4:1 
1 1:1 2:1 3:1 4:1 
1 1:1 2:1 3:1 4:1 
1 1:1 2:1 3:1 4:1 
1 1:1 2:1 3:1 4:1 
1 1:1 2:1 3:1 4:1 
1 1:1 2:1 3:1 4:1 
1 1:1 2:1 3:1 4:1 
1 1:1 2:1 3:1 4:1 
1 1:1 2:1 3:1 4:1 
1 1:1 2:1 3:1 4:1 
1 1:1 2:1 3:1 4:1 
1 1:1 2:1 3:1 4:1 
1 1:1 2:1 3:1 4:1 
1 1:1 2:1 3:1 4:1 
1 1:1 2:1 3:1 4:1 
1 1:1 2:1 3:1 4:1 
1 1:1 2:1 3:1 4:1 
1 1:1 2:1 3:1 4:1 
1 1:1 2:1 3:1 4:1 
1 1:1 2:1 3:1 4:1 
1 1:1 2:1 3:1 4:1 
1 1:1 2:1 3:1 4:1 
1 1:1 2:1 3:1 4:1 
1 1:1 2:1 3:1 4:1 
1 1:1 2:1 3:1 4:1 
1 1:1 2:1 3:1 4:1 
1 1:1 2:1 3:1 4:1 
1 1:1 2:1 3:1 4:1 
1 1:1 2:1 3:1 4:1 
1 1:0.5 2:0.4 3:0.63636364 4:0.17647059 
1 1:1 2:1 3:1 4:1 
1 1:1 2:1 3:1 4:1 
1 1:1 2:1 3:1 4:1 
1 1:1 2:1 3:1 4:1 
1 1:1 2:1 3:1 4:1 
1 1:1 2:1 3:1 4:1 
1 1:1 2:1 3:1 4:1 
1 1:1 2:1 3:1 4:1 
1 1:1 2:1 3:1 4:1 
1 1:1 2:1 3:1 4:1 
1 1:1 2:1 3:1 4:1 
1 1:1 2:1 3:1 4:1 
1 1:1 2:1 3:1 4:1 
0.4859231662976815 1:0.77777778 2:0.44444444 3:0.42857143 4:0.17647059 
1 1:1 2:1 3:1 4:1 
1 1:1 2:1 3:1 4:1 
1 1:1 2:1 3:1 4:1 
1 1:1 2:1 3:1 4:1 
1 1:1 2:1 3:1 4:1 
1 1:1 2:1 3:1 4:1 
1 1:1 2:1 3:1 4:1 
1 1:1 2:1 3:1 4:1 
1 1:1 2:1 3:1 4:1 
1 1:1 2:1 3:1 4:1 
1 1:1 2:1 3:1 4:1 
1 1:1 2:1 3:1 4:1 
1 1:1 2:1 3:1 4:1 
1 1:1 2:1 3:1 4:1 
1 1:1 2:1 3:1 4:1 
1 1:1 2:1 3:1 4:1 
1 1:1 2:1 3:1 4:1 
1 1:1 2:1 3:1 4:1 
1 1:1 2:1 3:1 4:1 
1 1:1 2:1 3:1 4:1 
1 1:1 2:1 3:1 4:1 
1 1:1 2:1 3:1 4:1 
1 1:1 2:1 3:1 4:1 
1 1:1 2:1 3:1 4:1 
1 1:1 2:1 3:1 4:1 
1 1:1 2:1 3:1 4:1 
1 1:1 2:1 3:1 4:1 
1 1:1 2:1 3:1 4:1 
1 1:1 2:1 3:1 4:1 
1 1:1 2:1 3:1 4:1 
1 1:1 2:1 3:1 4:1 
1 1:0.5 2:0.4 3:0.63636364 4:0.17647059 
1 1:1 2:1 3:1 4:1 
1 1:1 2:1 3:1 4:1 
1 1:1 2:1 3:1 4:1 
1 1:1 2:1 3:1 4:1 
1 1:1 2:1 3:1 4:1 
1 1:1 2:1 3:1 4:1 
1 1:1 2:1 3:1 4:1 
1 1:1 2:1 3:1 4:1 
1 1:1 2:1 3:1 4:1 
1 1:1 2:1 3:1 4:1 
1 1:1 2:1 3:1 4:1 
1 1:1 2:1 3:1 4:1 
1 1:1 2:1 3:1 4:1 
1 1:0.77777778 2:0.44444444 3:0.42857143 4:0.17647059 
1 1:1 2:1 3:1 4:1 
1 1:1 2:1 3:1 4:1 
1 1:1 2:1 3:1 4:1 
1 1:1 2:1 3:1 4:1 
1 1:1 2:1 3:1 4:1 
1 1:1 2:1 3:1 4:1 
1 1:1 2:1 3:1 4:1 
1 1:1 2:1 3:1 4:1 
1 1:1 2:1 3:1 4:1 
1 1:1 2:1 3:1 4:1 
1 1:1 2:1 3:1 4:1 
1 1:1 2:1 3:1 4:1 
1 1:1 2:1 3:1 4:1 
1 1:1 2:1 3:1 4:1 
1 1:1 2:1 3:1 4:1 
1 1:1 2:1 3:1 4:1 
1 1:1 2:1 3:1 4:1 
1 1:1 2:1 3:1 4:1 
1 1:1 2:1 3:1 4:1 
1 1:1 2:1 3:1 4:1 
1 1:1 2:1 3:1 4:1 
1 1:1 2:1 3:1 4:1 
1 1:1 2:1 3:1 4:1 
1 1:1 2:1 3:1 4:1 
1 1:1 2:1 3:1 4:1 
1 1:1 2:1 3:1 4:1 
1 1:1 2:1 3:1 4:1 
1 1:1 2:1 3:1 4:1 
1 1:1 2:1 3:1 4:1 
1 1:1 2:1 3:1 4:1 
1 1:0.5 2:0.4 3:0.63636364 4:0.17647059 
1 1:1 2:1 3:1 4:1 
1 1:1 2:1 3:1 4:1 
1 1:1 2:1 3:1 4:1 
1 1:1 2:1 3:1 4:1 
1 1:1 2:1 3:1 4:1 
1 1:1 2:1 3:1 4:1 
1 1:1 2:1 3:1 4:1 
1 1:1 2:1 3:1 4:1 
1 1:1 2:1 3:1 4:1 
1 1:1 2:1 3:1 4:1 
1 1:1 2:1 3:1 4:1 
1 1:1 2:1 3:1 4:1 
1 1:1 2:1 3:1 4:1 
1 1:0.77777778 2:0.44444444 3:0.42857143 4:0.17647059 
1 1:1 2:1 3:1 4:1 
1 1:1 2:1 3:1 4:1 
1 1:1 2:1 3:1 4:1 
1 1:1 2:1 3:1 4:1 
1 1:1 2:1 3:1 4:1 
1 1:1 2:1 3:1 4:1 
1 1:1 2:1 3:1 4:1 
1 1:1 2:1 3:1 4:1 
1 1:1 2:1 3:1 4:1 
1 1:1 2:1 3:1 4:1 
1 1:1 2:1 3:1 4:1 
1 1:1 2:1 3:1 4:1 
1 1:1 2:1 3:1 4:1 
1 1:1 2:1 3:1 4:1 
1 1:1 2:1 3:1 4:1 
1 1:1 2:1 3:1 4:1 
1 1:1 2:1 3:1 4:1 
1 1:1 2:1 3:1 4:1 
1 1:1 2:1 3:1 4:1 
1 1:1 2:1 3:1 4:1 
1 1:1 2:1 3:1 4:1 
1 1:1 2:1 3:1 4:1 
1 1:1 2:1 3:1 4:1 
1 1:1 2:1 3:1 4:1 
1 1:1 2:1 3:1 4:1 
1 1:1 2:1 3:1 4:1 
1 1:1 2:1 3:1 4:1 
1 1:1 2:1 3:1 4:1 
1 1:1 2:1 3:1 4:1 
1 1:0.5 2:0.4 3:0.63636364 4:0.17647059 
1 1:1 2:1 3:1 4:1 
1 1:1 2:1 3:1 4:1 
1 1:1 2:1 3:1 4:1 
1 1:1 2:1 3:1 4:1 
1 1:1 2:1 3:1 4:1 
1 1:1 2:1 3:1 4:1 
1 1:1 2:1 3:1 4:1 
1 1:1 2:1 3:1 4:1 
1 1:1 2:1 3:1 4:1 
1 1:1 2:1 3:1 4:1 
1 1:1 2:1 3:1 4:1 
1 1:1 2:1 3:1 4:1 
1 1:1 2:1 3:1 4:1 
1 1:0.77777778 2:0.44444444 3:0.42857143 4:0.17647059 
1 1:1 2:1 3:1 4:1 
1 1:1 2:1 3:1 4:1 
1 1:1 2:1 3:1 4:1 
1 1:1 2:1 3:1 4:1 
1 1:1 2:1 3:1 4:1 
1 1:1 2:1 3:1 4:1 
1 1:1 2:1 3:1 4:1 
1 1:1 2:1 3:1 4:1 
1 1:1 2:1 3:1 4:1 
1 1:1 2:1 3:1 4:1 
1 1:1 2:1 3:1 4:1 
1 1:1 2:1 3:1 4:1 
1 1:1 2:1 3:1 4:1 
1 1:1 2:1 3:1 4:1 
1 1:1 2:1 3:1 4:1 
1 1:1 2:1 3:1 4:1 
1 1:1 2:1 3:1 4:1 
1 1:1 2:1 3:1 4:1 
1 1:1 2:1 3:1 4:1 
1 1:1 2:1 3:1 4:1 
1 1:1 2:1 3:1 4:1 
1 1:1 2:1 3:1 4:1 
1 1:1 2:1 3:1 4:1 
1 1:1 2:1 3:1 4:1 
1 1:1 2:1 3:1 4:1 
1 1:1 2:1 3:1 4:1 
1 1:1 2:1 3:1 4:1 
1 1:1 2:1 3:1 4:1 
1 1:0.5 2:0.4 3:0.63636364 4:0.17647059 
1 1:1 2:1 3:1 4:1 
1 1:1 2:1 3:1 4:1 
1 1:1 2:1 3:1 4:1 
1 1:1 2:1 3:1 4:1 
1 1:1 2:1 3:1 4:1 
1 1:1 2:1 3:1 4:1 
1 1:1 2:1 3:1 4:1 
1 1:1 2:1 3:1 4:1 
1 1:1 2:1 3:1 4:1 
1 1:1 2:1 3:1 4:1 
1 1:1 2:1 3:1 4:1 
1 1:1 2:1 3:1 4:1 
1 1:1 2:1 3:1 4:1 
1 1:0.77777778 2:0.44444444 3:0.42857143 4:0.17647059 
1 1:1 2:1 3:1 4:1 
1 1:1 2:1 3:1 4:1 
1 1:1 2:1 3:1 4:1 
1 1:1 2:1 3:1 4:1 
1 1:1 2:1 3:1 4:1 
1 1:1 2:1 3:1 4:1 
1 1:1 2:1 3:1 4:1 
1 1:1 2:1 3:1 4:1 
1 1:1 2:1 3:1 4:1 
1 1:1 2:1 3:1 4:1 
1 1:1 2:1 3:1 4:1 
1 1:1 2:1 3:1 4:1 
1 1:1 2:1 3:1 4:1 
1 1:1 2:1 3:1 4:1 
1 1:1 2:1 3:1 4:1 
1 1:1 2:1 3:1 4:1 
1 1:1 2:1 3:1 4:1 
1 1:1 2:1 3:1 4:1 
1 1:1 2:1 3:1 4:1 
1 1:1 2:1 3:1 4:1 
1 1:1 2:1 3:1 4:1 
1 1:1 2:1 3:1 4:1 
1 1:1 2:1 3:1 4:1 
1 1:1 2:1 3:1 4:1 
1 1:1 2:1 3:1 4:1 
1 1:1 2:1 3:1 4:1 
1 1:1 2:1 3:1 4:1 
1 1:0.5 2:0.4 3:0.63636364 4:0.17647059 
1 1:1 2:1 3:1 4:1 
1 1:1 2:1 3:1 4:1 
1 1:1 2:1 3:1 4:1 
1 1:1 2:1 3:1 4:1 
1 1:1 2:1 3:1 4:1 
1 1:1 2:1 3:1 4:1 
1 1:1 2:1 3:1 4:1 
1 1:1 2:1 3:1 4:1 
1 1:1 2:1 3:1 4:1 
1 1:1 2:1 3:1 4:1 
1 1:1 2:1 3:1 4:1 
1 1:1 2:1 3:1 4:1 
1 1:1 2:1 3:1 4:1 
1 1:0.77777778 2:0.44444444 3:0.42857143 4:0.17647059 
1 1:1 2:1 3:1 4:1 
1 1:1 2:1 3:1 4:1 
1 1:1 2:1 3:1 4:1 
1 1:1 2:1 3:1 4:1 
1 1:1 2:1 3:1 4:1 
1 1:1 2:1 3:1 4:1 
1 1:1 2:1 3:1 4:1 
1 1:1 2:1 3:1 4:1 
1 1:1 2:1 3:1 4:1 
1 1:1 2:1 3:1 4:1 
1 1:1 2:1 3:1 4:1 
1 1:1 2:1 3:1 4:1 
1 1:1 2:1 3:1 4:1 
1 1:1 2:1 3:1 4:1 
1 1:1 2:1 3:1 4:1 
1 1:1 2:1 3:1 4:1 
1 1:1 2:1 3:1 4:1 
1 1:1 2:1 3:1 4:1 
1 1:1 2:1 3:1 4:1 
1 1:1 2:1 3:1 4:1 
1 1:1 2:1 3:1 4:1 
1 1:1 2:1 3:1 4:1 
1 1:1 2:1 3:1 4:1 
1 1:1 2:1 3:1 4:1 
1 1:1 2:1 3:1 4:1 
1 1:1 2:1 3:1 4:1 
1 1:0.5 2:0.4 3:0.63636364 4:0.17647059 
1 1:1 2:1 3:1 4:1 
1 1:1 2:1 3:1 4:1 
1 1:1 2:1 3:1 4:1 
1 1:1 2:1 3:1 4:1 
1 1:1 2:1 3:1 4:1 
1 1:1 2:1 3:1 4:1 
1 1:1 2:1 3:1 4:1 
1 1:1 2:1 3:1 4:1 
1 1:1 2:1 3:1 4:1 
1 1:1 2:1 3:1 4:1 
1 1:1 2:1 3:1 4:1 
1 1:1 2:1 3:1 4:1 
1 1:1 2:1 3:1 4:1 
1 1:0.77777778 2:0.44444444 3:0.42857143 4:0.17647059 
1 1:1 2:1 3:1 4:1 
1 1:1 2:1 3:1 4:1 
1 1:1 2:1 3:1 4:1 
1 1:1 2:1 3:1 4:1 
1 1:1 2:1 3:1 4:1 
1 1:1 2:1 3:1 4:1 
1 1:1 2:1 3:1 4:1 
1 1:1 2:1 3:1 4:1 
1 1:1 2:1 3:1 4:1 
1 1:1 2:1 3:1 4:1 
1 1:1 2:1 3:1 4:1 
1 1:1 2:1 3:1 4:1 
1 1:1 2:1 3:1 4:1 
1 1:1 2:1 3:1 4:1 
1 1:1 2:1 3:1 4:1 
1 1:1 2:1 3:1 4:1 
1 1:1 2:1 3:1 4:1 
1 1:1 2:1 3:1 4:1 
1 1:1 2:1 3:1 4:1 
1 1:1 2:1 3:1 4:1 
1 1:1 2:1 3:1 4:1 
1 1:1 2:1 3:1 4:1 
1 1:1 2:1 3:1 4:1 
1 1:1 2:1 3:1 4:1 
1 1:1 2:1 3:1 4:1 
1 1:1 2:1 3:1 4:1 
1 1:0.5 2:0.4 3:0.63636364 4:0.17647059 
1 1:0.5 2:0.4 3:0.63636364 4:0.17647059 
1 1:0.5 2:0.4 3:0.63636364 4:0.17647059 
1 1:0.5 2:0.4 3:0.63636364 4:0.17647059 
1 1:0.5 2:0.4 3:0.63636364 4:0.17647059 
1 1:0.5 2:0.4 3:0.63636364 4:0.17647059 
1 1:0.5 2:0.4 3:0.63636364 4:0.17647059 
1 1:0.5 2:0.4 3:0.63636364 4:0.17647059 
1 1:0.5 2:0.4 3:0.63636364 4:0.17647059 
1 1:0.5 2:0.4 3:0.63636364 4:0.17647059 
1 1:0.5 2:0.4 3:0.63636364 4:0.17647059 
1 1:0.5 2:0.4 3:0.63636364 4:0.17647059 
1 1:0.5 2:0.4 3:0.63636364 4:0.17647059 
1 1:0.36363636 2:0.44444444 3:0.5 4:0.25 
1 1:0.5 2:0.4 3:0.63636364 4:0.17647059 
1 1:0.5 2:0.4 3:0.63636364 4:0.17647059 
1 1:0.5 2:0.4 3:0.63636364 4:0.17647059 
1 1:0.5 2:0.4 3:0.63636364 4:0.17647059 
1 1:0.5 2:0.4 3:0.63636364 4:0.17647059 
1 1:0.5 2:0.4 3:0.63636364 4:0.17647059 
1 1:0.5 2:0.4 3:0.63636364 4:0.17647059 
1 1:0.5 2:0.4 3:0.63636364 4:0.17647059 
1 1:0.5 2:0.4 3:0.63636364 4:0.17647059 
1 1:0.5 2:0.4 3:0.63636364 4:0.17647059 
1 1:0.5 2:0.4 3:0.63636364 4:0.17647059 
1 1:0.5 2:0.4 3:0.63636364 4:0.17647059 
1 1:0.5 2:0.4 3:0.63636364 4:0.17647059 
1 1:0.5 2:0.4 3:0.63636364 4:0.17647059 
1 1:0.5 2:0.4 3:0.63636364 4:0.17647059 
1 1:0.5 2:0.4 3:0.63636364 4:0.17647059 
1 1:0.5 2:0.4 3:0.63636364 4:0.17647059 
1 1:0.5 2:0.4 3:0.63636364 4:0.17647059 
1 1:0.5 2:0.4 3:0.63636364 4:0.17647059 
1 1:0.5 2:0.4 3:0.63636364 4:0.17647059 
1 1:0.5 2:0.4 3:0.63636364 4:0.17647059 
1 1:0.5 2:0.4 3:0.63636364 4:0.17647059 
1 1:0.5 2:0.4 3:0.63636364 4:0.17647059 
1 1:0.5 2:0.4 3:0.63636364 4:0.17647059 
1 1:0.5 2:0.4 3:0.63636364 4:0.17647059 
1 1:0.5 2:0.4 3:0.63636364 4:0.17647059 
1 1:1 2:1 3:1 4:1 
1 1:1 2:1 3:1 4:1 
1 1:1 2:1 3:1 4:1 
1 1:1 2:1 3:1 4:1 
1 1:1 2:1 3:1 4:1 
1 1:1 2:1 3:1 4:1 
1 1:1 2:1 3:1 4:1 
1 1:1 2:1 3:1 4:1 
1 1:1 2:1 3:1 4:1 
1 1:1 2:1 3:1 4:1 
1 1:1 2:1 3:1 4:1 
1 1:1 2:1 3:1 4:1 
1 1:0.77777778 2:0.44444444 3:0.42857143 4:0.17647059 
1 1:1 2:1 3:1 4:1 
1 1:1 2:1 3:1 4:1 
1 1:1 2:1 3:1 4:1 
1 1:1 2:1 3:1 4:1 
1 1:1 2:1 3:1 4:1 
1 1:1 2:1 3:1 4:1 
1 1:1 2:1 3:1 4:1 
1 1:1 2:1 3:1 4:1 
1 1:1 2:1 3:1 4:1 
1 1:1 2:1 3:1 4:1 
1 1:1 2:1 3:1 4:1 
1 1:1 2:1 3:1 4:1 
1 1:1 2:1 3:1 4:1 
1 1:1 2:1 3:1 4:1 
1 1:1 2:1 3:1 4:1 
1 1:1 2:1 3:1 4:1 
1 1:1 2:1 3:1 4:1 
1 1:1 2:1 3:1 4:1 
1 1:1 2:1 3:1 4:1 
1 1:1 2:1 3:1 4:1 
1 1:1 2:1 3:1 4:1 
1 1:1 2:1 3:1 4:1 
1 1:1 2:1 3:1 4:1 
1 1:1 2:1 3:1 4:1 
1 1:1 2:1 3:1 4:1 
1 1:1 2:1 3:1 4:1 
1 1:1 2:1 3:1 4:1 
1 1:1 2:1 3:1 4:1 
1 1:1 2:1 3:1 4:1 
1 1:1 2:1 3:1 4:1 
1 1:1 2:1 3:1 4:1 
1 1:1 2:1 3:1 4:1 
1 1:1 2:1 3:1 4:1 
1 1:1 2:1 3:1 4:1 
1 1:1 2:1 3:1 4:1 
1 1:1 2:1 3:1 4:1 
1 1:1 2:1 3:1 4:1 
1 1:0.77777778 2:0.44444444 3:0.42857143 4:0.17647059 
1 1:1 2:1 3:1 4:1 
1 1:1 2:1 3:1 4:1 
1 1:1 2:1 3:1 4:1 
1 1:1 2:1 3:1 4:1 
1 1:1 2:1 3:1 4:1 
1 1:1 2:1 3:1 4:1 
1 1:1 2:1 3:1 4:1 
1 1:1 2:1 3:1 4:1 
1 1:1 2:1 3:1 4:1 
1 1:1 2:1 3:1 4:1 
1 1:1 2:1 3:1 4:1 
1 1:1 2:1 3:1 4:1 
1 1:1 2:1 3:1 4:1 
1 1:1 2:1 3:1 4:1 
1 1:1 2:1 3:1 4:1 
1 1:1 2:1 3:1 4:1 
1 1:1 2:1 3:1 4:1 
1 1:1 2:1 3:1 4:1 
1 1:1 2:1 3:1 4:1 
1 1:1 2:1 3:1 4:1 
1 1:1 2:1 3:1 4:1 
1 1:1 2:1 3:1 4:1 
1 1:1 2:1 3:1 4:1 
1 1:1 2:1 3:1 4:1 
1 1:1 2:1 3:1 4:1 
1 1:1 2:1 3:1 4:1 
1 1:1 2:1 3:1 4:1 
1 1:1 2:1 3:1 4:1 
1 1:1 2:1 3:1 4:1 
1 1:1 2:1 3:1 4:1 
1 1:1 2:1 3:1 4:1 
1 1:1 2:1 3:1 4:1 
1 1:1 2:1 3:1 4:1 
1 1:1 2:1 3:1 4:1 
1 1:1 2:1 3:1 4:1 
1 1:1 2:1 3:1 4:1 
1 1:0.77777778 2:0.44444444 3:0.42857143 4:0.17647059 
1 1:1 2:1 3:1 4:1 
1 1:1 2:1 3:1 4:1 
1 1:1 2:1 3:1 4:1 
1 1:1 2:1 3:1 4:1 
1 1:1 2:1 3:1 4:1 
1 1:1 2:1 3:1 4:1 
1 1:1 2:1 3:1 4:1 
1 1:1 2:1 3:1 4:1 
1 1:1 2:1 3:1 4:1 
1 1:1 2:1 3:1 4:1 
1 1:1 2:1 3:1 4:1 
1 1:1 2:1 3:1 4:1 
1 1:1 2:1 3:1 4:1 
1 1:1 2:1 3:1 4:1 
1 1:1 2:1 3:1 4:1 
1 1:1 2:1 3:1 4:1 
1 1:1 2:1 3:1 4:1 
1 1:1 2:1 3:1 4:1 
1 1:1 2:1 3:1 4:1 
1 1:1 2:1 3:1 4:1 
1 1:1 2:1 3:1 4:1 
1 1:1 2:1 3:1 4:1 
1 1:1 2:1 3:1 4:1 
1 1:1 2:1 3:1 4:1 
1 1:1 2:1 3:1 4:1 
1 1:1 2:1 3:1 4:1 
1 1:1 2:1 3:1 4:1 
1 1:1 2:1 3:1 4:1 
1 1:1 2:1 3:1 4:1 
1 1:1 2:1 3:1 4:1 
1 1:1 2:1 3:1 4:1 
1 1:1 2:1 3:1 4:1 
1 1:1 2:1 3:1 4:1 
1 1:1 2:1 3:1 4:1 
1 1:1 2:1 3:1 4:1 
1 1:0.77777778 2:0.44444444 3:0.42857143 4:0.17647059 
1 1:1 2:1 3:1 4:1 
1 1:1 2:1 3:1 4:1 
1 1:1 2:1 3:1 4:1 
1 1:1 2:1 3:1 4:1 
1 1:1 2:1 3:1 4:1 
1 1:1 2:1 3:1 4:1 
1 1:1 2:1 3:1 4:1 
1 1:1 2:1 3:1 4:1 
1 1:1 2:1 3:1 4:1 
1 1:1 2:1 3:1 4:1 
1 1:1 2:1 3:1 4:1 
1 1:1 2:1 3:1 4:1 
1 1:1 2:1 3:1 4:1 
1 1:1 2:1 3:1 4:1 
1 1:1 2:1 3:1 4:1 
1 1:1 2:1 3:1 4:1 
1 1:1 2:1 3:1 4:1 
1 1:1 2:1 3:1 4:1 
1 1:1 2:1 3:1 4:1 
1 1:1 2:1 3:1 4:1 
1 1:1 2:1 3:1 4:1 
1 1:1 2:1 3:1 4:1 
1 1:1 2:1 3:1 4:1 
1 1:1 2:1 3:1 4:1 
1 1:1 2:1 3:1 4:1 
1 1:1 2:1 3:1 4:1 
1 1:1 2:1 3:1 4:1 
1 1:1 2:1 3:1 4:1 
1 1:1 2:1 3:1 4:1 
1 1:1 2:1 3:1 4:1 
1 1:1 2:1 3:1 4:1 
1 1:1 2:1 3:1 4:1 
1 1:1 2:1 3:1 4:1 
1 1:1 2:1 3:1 4:1 
1 1:0.77777778 2:0.44444444 3:0.42857143 4:0.17647059 
1 1:1 2:1 3:1 4:1 
1 1:1 2:1 3:1 4:1 
1 1:1 2:1 3:1 4:1 
1 1:1 2:1 3:1 4:1 
1 1:1 2:1 3:1 4:1 
1 1:1 2:1 3:1 4:1 
1 1:1 2:1 3:1 4:1 
1 1:1 2:1 3:1 4:1 
1 1:1 2:1 3:1 4:1 
1 1:1 2:1 3:1 4:1 
1 1:1 2:1 3:1 4:1 
1 1:1 2:1 3:1 4:1 
1 1:1 2:1 3:1 4:1 
1 1:1 2:1 3:1 4:1 
1 1:1 2:1 3:1 4:1 
1 1:1 2:1 3:1 4:1 
1 1:1 2:1 3:1 4:1 
1 1:1 2:1 3:1 4:1 
1 1:1 2:1 3:1 4:1 
1 1:1 2:1 3:1 4:1 
1 1:1 2:1 3:1 4:1 
1 1:1 2:1 3:1 4:1 
1 1:1 2:1 3:1 4:1 
1 1:1 2:1 3:1 4:1 
1 1:1 2:1 3:1 4:1 
1 1:1 2:1 3:1 4:1 
1 1:1 2:1 3:1 4:1 
1 1:1 2:1 3:1 4:1 
1 1:1 2:1 3:1 4:1 
1 1:1 2:1 3:1 4:1 
1 1:1 2:1 3:1 4:1 
1 1:1 2:1 3:1 4:1 
1 1:1 2:1 3:1 4:1 
1 1:0.77777778 2:0.44444444 3:0.42857143 4:0.17647059 
1 1:1 2:1 3:1 4:1 
1 1:1 2:1 3:1 4:1 
1 1:1 2:1 3:1 4:1 
1 1:1 2:1 3:1 4:1 
1 1:1 2:1 3:1 4:1 
1 1:1 2:1 3:1 4:1 
1 1:1 2:1 3:1 4:1 
1 1:1 2:1 3:1 4:1 
1 1:1 2:1 3:1 4:1 
1 1:1 2:1 3:1 4:1 
1 1:1 2:1 3:1 4:1 
1 1:1 2:1 3:1 4:1 
1 1:1 2:1 3:1 4:1 
1 1:1 2:1 3:1 4:1 
1 1:1 2:1 3:1 4:1 
1 1:1 2:1 3:1 4:1 
1 1:1 2:1 3:1 4:1 
1 1:1 2:1 3:1 4:1 
1 1:1 2:1 3:1 4:1 
1 1:1 2:1 3:1 4:1 
1 1:1 2:1 3:1 4:1 
1 1:1 2:1 3:1 4:1 
1 1:1 2:1 3:1 4:1 
1 1:1 2:1 3:1 4:1 
1 1:1 2:1 3:1 4:1 
1 1:1 2:1 3:1 4:1 
1 1:1 2:1 3:1 4:1 
1 1:1 2:1 3:1 4:1 
1 1:1 2:1 3:1 4:1 
1 1:1 2:1 3:1 4:1 
1 1:1 2:1 3:1 4:1 
1 1:1 2:1 3:1 4:1 
1 1:0.77777778 2:0.44444444 3:0.42857143 4:0.17647059 
1 1:1 2:1 3:1 4:1 
1 1:1 2:1 3:1 4:1 
1 1:1 2:1 3:1 4:1 
1 1:1 2:1 3:1 4:1 
1 1:1 2:1 3:1 4:1 
1 1:1 2:1 3:1 4:1 
1 1:1 2:1 3:1 4:1 
1 1:1 2:1 3:1 4:1 
1 1:1 2:1 3:1 4:1 
1 1:1 2:1 3:1 4:1 
1 1:1 2:1 3:1 4:1 
1 1:1 2:1 3:1 4:1 
1 1:1 2:1 3:1 4:1 
1 1:1 2:1 3:1 4:1 
1 1:1 2:1 3:1 4:1 
1 1:1 2:1 3:1 4:1 
1 1:1 2:1 3:1 4:1 
1 1:1 2:1 3:1 4:1 
1 1:1 2:1 3:1 4:1 
1 1:1 2:1 3:1 4:1 
1 1:1 2:1 3:1 4:1 
1 1:1 2:1 3:1 4:1 
1 1:1 2:1 3:1 4:1 
1 1:1 2:1 3:1 4:1 
1 1:1 2:1 3:1 4:1 
1 1:1 2:1 3:1 4:1 
1 1:1 2:1 3:1 4:1 
1 1:1 2:1 3:1 4:1 
1 1:1 2:1 3:1 4:1 
1 1:1 2:1 3:1 4:1 
1 1:1 2:1 3:1 4:1 
1 1:0.77777778 2:0.44444444 3:0.42857143 4:0.17647059 
1 1:1 2:1 3:1 4:1 
1 1:1 2:1 3:1 4:1 
1 1:1 2:1 3:1 4:1 
1 1:1 2:1 3:1 4:1 
1 1:1 2:1 3:1 4:1 
